-0,28770819324245633;-0,27261905689982;-0,378915535501384;-0,3518881243413481;-0,43936352447762;-0,15488844744877536;0,14104142577118925;-0,13234183351580095;0,4468189916478961;-0,35304066186175487;-0,36187930331168033;0,16001879591452642;0,057251982615766854;0,025578321830982225;-0,2917445198993534;-0,09611793846828053;-0,08749502224128719;-0,34040560364947525;-0,0035117755843299845;-0,4633560498018245;0,069628432699228;-0,22927002824034504;-0,09916483868986968;-0,013427826885207295;0,2331745783852471;0,43458328072501;0,23858808093416098;-0,17502125739381422;-0,23896212761431823;-0,20950318156052888;-0,1503229709023291;0,2065230031606509;-0,0794705717719031;-0,22671999727894637;-0,12003770956211257;0,12760808464902157;0,031498323267928986;0,23276146148213264;-0,24874330167888214;0,23919214535546462;0,0693966046882371;-0,2326955264837342;-0,07893692668673778;-0,25775117075238557;-0,002820517660017205;0,29600243587680614;-0,17384303345252014;-0,10965259984826523;-0,006300690075816012;0,34637244915291704;-0,4479081909071352;-0,07734976387079827;0,16608037215304328;-0,412523981703608;-0,03238328651381429;0,2474821521472883;-0,18909795578189043;-0,4024814497894407;0,03672269974676593;0,3972564046005578;-0,23206925359923083;-0,25522616316794683;-0,2564612059372733;0,05862695519664531;0,012565275741664815;-0,37535301065048826;0,1455770048471137;-0,20615952021012804;-0,4715668323142371;-0,2921984573786477;-0,49362728882103335;-0,22019868963541755;-0,09554723605779637;0,4538061773498953;-0,15670615935910823;-0,4268858636593923;-0,37650015866943765;0,017553510437939693;-0,5374598255944211;0,030869633094548224;-0,4440190136068237;-0,11414038092626679;0,17096865858609953;0,5096645610277001;0,17986820826677855;-0,03686810206652285;0,29554621921013474;-0,18145821513871493;-0,4242185568577421;-0,2870973031654443;-0,0197438560465137;0,21287624852850526;-0,1642111828578097;-0,0711351458512194;-0,016740011894758638;0,27562312549135476;-0,3186069203117183;0,10969034534546317;-0,49849155962058195;-0,8318257258335109;0,13632422563279342;0,03435124227867121;0,30325104613719017;-0,08445550137724304;0,20256084126208704;0,2274320537860926;-0,533294973855897;0,7161048311036553;0,5635369000252684;-0,7114320958937365;-0,9423936872631282;0,08079151189841292;-0,003822279192880651;0,17307195713517737;0,2551790493308257;0,46325502902432014;0,3352344455178342;0,33612300320099614;0,07752377641399351;0,45892014570068723;0,3119523586608998;0,11311102807565034;0,3205427537603316;0,10924446691419983;0,30749920799030717;-0,07398484882619079;0,08469094061804033;-0,34948143450699176;0,3591136078159508;0,4972053902497586;-0,33385600076876143;0,41709730576238946;-0,42027421824645234;0,2609885830435941;0,364294563924723;-0,2641119949157959;-0,33782861357718974;0,45278154165162693;0,11163912311128787;0,13387473470203878;-0,35157333571811883;-0,48574789842024313;-0,06910658684356788;0,08586705707302035;0,2833676078976128;0,3550764870462009;-0,045632184115544955;-0,716857486004129;-0,3354329593835847;0,024530609825073935;0,21771651492432587;0,14247735727244518;-0,16719447420577163;-0,33946229082639306;0,11742374666025121;-0,10177512160667947;0,5833320012620098;0,4840083697754518;0,44808844085757765;0,03185248083573851;-0,315589391977748;0,3465884231520526;-0,030296884624838864;-0,43659488043427747;-0,07117263875179965;-0,20384138570436675;-0,4149107658550044;-0,03232601398004046;-0,30353658546636786;-0,34455438865282534;0,2724085103826699;0,2961729478791403;0,03330509132039556;-0,08448510548192137;-0,5691435033653558;-0,49737552979242283;-0,12522121883064877;0,1883139979414363;0,7208721900118522;-0,3953133935338065;0,08555497372971854;-0,2901223086354298;0,08014199294892854;-0,4977567177001591;0,45092961053813746;-0,31252299835839975;-0,18439446136450713;0,3044410223245915;0,24957672474851195;0,4739682708459879;-0,25947661681166556;0,03967842862882101;0,012272145594541485;-0,06187609372889569;0,019702173928996494;0,43700715105051985;0,4108690176967683;-0,48927356680043743;0,3479097426518095;-0,21379649538668918;0,03522976853124608;-0,4746072451724586;0,149606800458747;0,10307338649330679;0,45001446529199696;0,29697059281254107;0,16711575829426747;-0,30700451305255844;0,2961427289375089;-0,44724584907729376;-0,39164137331722193;0,08838493041685663;-0,3085603953010928;-0,13825321842719693;-0,06936762104588588;0,3176345225102983;-0,2699052443950865;-0,2591545933085594;0,017096200719571103;0,22212899677911332;0,856977392475793;0,7066160700686258;-0,11910475389058994;0,37116446947263954;0,4797944155711471;-0,42980787611047483;-0,6659470854822737;-0,2547989061429354;0,01881410892869416;0,3891411879165785;-0,18233562360704558;-0,13162215994467885;-0,2995318005462852;0,19348999067602288;0,3648866817317639;-0,15152497629585734;-0,004396975970838522;-0,46633281823749917;0,37123836504857693;0,019145323427677094;0,38405210324998723;0,12226824161078634;0,17479847822882866;-0,2223215232947227;-0,2822597943540276;-0,21066890519816697;-0,21746468749316578;-0,08195020426307678;-0,1359582356271465;0,012263232935972554;-0,2506407493208122;0,2650607682644221;-0,07551840944299354;0,40157004824837234;0,5719401348562075;-0,3077796002847571;-0,23939499742930234;0,13041072582009477;-0,3132309844035373;-0,37149997292207365;-0,14866464026589446;0,17048085533780474;0,19336711871671633;0,17423219109379043;-0,01577838523942998;0,17220760069346033;-0,3429631475368336;0,36085181680490164;-0,30146012260201854;-0,4805366494515349;-0,43354373872130053;-0,10874283028014109;-0,26228768155709825;-0,5014196033747117;0,028903706855521044;0,4640631598323977;-0,881565247551785;-0,5481014951209018;0,48294658886761394;0,04100531827767426;-0,46740228056231736;-0,3179734359480175;0,39304851875665414;-0,3382508857922679;0,40051519000868074;0,21628441573320598;0,1427220126204765;-0,2265195255180997;-0,008815197706353556;-0,5339529323113942;0,17612857382024952;-0,27512438800338457;-0,20798108674594376;0,23332122154293958;0,23759994586446453;0,29102797928011553;-0,4382808719265237;-0,052972899774256024;-0,08630531115348403;0,2814862876711968;0,2912657159000345;-0,2269106799918751;-0,02026360666520179;-0,08024156272149227;-0,1871457065095118;-0,42788351550909526;0,24492865744978118;-0,40551745553435103;0,7024778785299617;-0,26350789731302326;0,12293928387146424;0,2874217052077393;0,10271108311620429;-0,019840379672000204;-0,19288824735316815;0,17069005939329016;-0,4467501076382086;0,3038451947709158;-0,22027500130183933;-0,29674649463606306;-0,2386630150753367;0,03947808407430013;-0,03058451842752189;0,03455862159011801;0,14904111219708133;0,3011296776511946;0,010212601650877826;0,16170312907795875;0,22521432873696562;-0,15146931407599182;-0,4971802593125297;-0,22553485903141016;-0,08480187817710293;-0,11515105185957558;-0,28567279929038836;-0,29990522219765114;0,4323108155029628;-0,017873600158973775;0,10244801162555926;-0,6874890464435492;-0,2565155805674843;-0,27990989233065444;-0,5474669239395873;-0,47188376932372617;-0,13694357623405373;-0,10681368159428348;-0,252679551351679;-0,18598465184025773;0,5953888622208795;0,09368936138075219;-0,17235544216167753;-0,4507787985746904;-0,3202551063800374;0,2314957230404025;-0,33772045165226394;0,8559886381444902;-0,36351703890548864;0,19885398889071232;0,06978155911145359;0,10906559091294776;0,2907944998816606;0,4085567202594674;0,29975486222152387;0,46000878917080595;-0,21129042472265758;0,9029840246864732;-0,5806162524016453;-0,391507535179039;-0,34058438479003844;0,19279026851120737;0,13573369794905485;0,7140470338370966;-0,11425960877980647;0,021465030029300305;0,11162830771402789;-0,15311240910805507;-0,49892703837153213;-0,21170981064744224;-0,3666925178589096;-0,023150538851338574;0,07716691484502906;-0,21731706207397095;0,29439573239674105;-0,04644298011953033;-0,059029971263154936;-0,44988312291855476;-0,06261337326104904;0,24238753563967186;-0,46207163136628937;-0,03737430700151812;0,4295657714390649;0,4279797317416875;-0,246084367102606;0,38325362462414847;0,4155034592367148;-0,16477158904621259;-0,22941995487410968;-0,6254107115665639;0,04508566256113174;-0,039461010916928586;-0,3966648620969343;0,657512361271587;0,5054245754572914;0,23679167935080125;-0,14914550824014278;-0,6941837076761485;-0,23684128278627145;-0,29290117219022627;-0,3459666251434957;0,5741260849375299;0,3270427181845319;0,7266337994502651;1,2256027598444583;-0,47518969384935744;-0,5182762217014529;0,3183076943003796;0,3761173598171827;0,17298627986653295;0,08294995049227626;-0,05098738444410638;-0,1390086465316435;-0,209696763101453;-0,07691519456331487;0,06755672565167427;0,1107465253756833;0,36681229684503047;-0,11407412686692264;-0,2792243513549562;-0,14246901510116716;-0,020750553932641514;-0,2733325738182449;0,23379751486606373;-0,5029093577488623;0,1746036432696687;-0,3537047264628983;-0,2815970451064421;0,46464429995282214;0,0023607698696614084;-0,08235994339102751;0,006488075689143576;-0,30140480097798394;-0,23574611383237204;-0,46630188798999433;-0,08063296186198826;0,41422610825155365;-0,25877701004196507;-0,08653868684754533;0,31327870934249114;0,09632065276120338;-0,03704023994524745;0,2524434775139389;-0,057203764850271725;0,3470373432160273;-0,4518243058506117;-0,07706952141354358;0,2826780028598341;-0,12097785165643973;-0,19679484069341432;0,4696204120784723;0,14393614676596556;-0,3455138858151988;0,457058410175463;0,1631768907566903;-0,02986979485535667;0,06757195905272494;-0,13694689843686048;0,3136374542599399;0,30746315402578295;0,3857117473547281;0,24799842045559864;0,45322972506474224;0,07380511339496212;-0,42596703147479936;0,39920823531768496;-0,3534823321072844;-0,018729500655245975;-0,4320463469894718;0,30067852389580657;0,14637784903015466;0,3788800117155772;0,08564603975560425;0,24183700536677602;-0,563291272038232;0,4836502732481639;-0,18841876438154082;-0,37057546933586044;0,3248238539600511;-0,04849159839328219;0,21774315175818829;0,4947650641014713;0,21914843627223904;0,023164479567829063;-0,020146873554688097;0,5619850105567734;0,6451778780985709;-0,35427727500946526;0,2739996208497117;-0,16260343241890815;-0,2521700918527333;-0,08796722462178788;0,4404516799015207;-0,11354593201821951;-0,4624230950404408;0,12027516588375496;-0,4904365223505165;0,07551682648909377;-0,15501975621673209;0,4332119096406802;0,6959686799880368;-0,0017879212066770878;-0,11000712181231609;-0,2798949732758741;-0,27031876229140317;0,3603182946212732;-0,27327904013609255;0,4584662454187631;-0,39257482808827143;-0,12521046371854685;0,21642644129907604;-0,21128925437350604;0,08870712335384909;0,29809227166185737;-0,09995864302424694;-0,3149848582228408;0,2830212402296038;0,040915721322063135;0,129584147406224;-0,4566005147651853;0,46472400328858987;-0,379223038072093;0,04160478253971161;0,25503635983812056;0,09190354014995852;0,5643467950429245;-0,7123700734991538;-0,13331778957021437;-0,2601297468559454;-0,051475063835133096;-0,462988547687564;0,0698432234724593;-0,22562214304121625;-0,04253304938470054;-0,26509508449366576;0,46618786470644913;-0,031140491786954334;0,18510555300648593;-0,4902264376708377;-0,05188221956470478;0,43558925985029096;-0,4103480286094702;0,06596283660355427;-0,4635562614730532;-0,10969437981236091;-0,287942233957765;0,5763393726747431;0,5409043940728714;-0,07319355500833936;-0,487218878206485;-0,17810042110367919;-0,1880894618446339;0,08870234145964906;-0,12156464498648359;0,44540637348934126;-0,5603223958459292;-0,4361861286041548;0,31673156880996867;0,08930607720529278;-0,31756527116926614;-0,015308450719751291;0,038821892435230945;0,6253446325254685;0,5022471341135389;-0,01520727560127543;-0,0375306013615847;0,32658650273073386;0,3504278912328046;-0,45617343966374724;0,34426746695440397;-0,023934394326706306;-0,44217597314342716;0,18705499184138338;-0,3288955744914179;0,5243783221182489;-0,03930685074015455;-0,345840795129195;-0,18682330832998076;-0,25295695699494575;0,10997781288147922;0,3685349558372729;-0,06157056645811706;0,5584510984355323;-0,40866147306672496;0,4284760313200683;-0,04551470147658197;0,2032794760560087;-0,09692887415893106;0,19365497063963658;0,22108223514660308;-0,006425463033942678;0,12664263133495599;-0,15679464057077602;-0,634259218485041;-0,22263207388846448;0,5024096956615729;0,05977043208634858;-0,11862256850859274;-0,22270369714491373;-0,16703641928086202;-0,11505377679755291;0,08294122987159314;0,05076573200159929;-0,07851128388264733;-0,2726244097765711;0,32022166791696616;-0,21253753328079544;-0,09480481080970445;-0,23573693205739915;0,06466151176078064;0,1811241448203828;0,2896937137170934;0,4666793584596769;-0,14638853589870277;-0,22948064938257381;0,12670496776019152;-0,4406018066614754;-0,41512705593885396;0,3266555505862562;0,07214772871018957;0,571015838564384;-0,035728912206265964;-0,06570260157482807;-0,4837955022231992;-0,3723804912048427;0,3310345692072474;-0,32492675619331707;-0,31717983539488565;-0,4551143519831187;0,14796304803810592;-0,17199276860088286;-0,1640591956421732;0,3221469456471748;-0,19010485347693726;-0,46169559596972953;-0,044929619138935284;-0,30085152146439964;0,22489732125077372;0,0461827882003807;-0,334946868886973;-0,3062945792198728;-0,26846192554859266;0,04840789895168794;0,11778646232600089;-0,16428156085511836;0,5022754783044104;-0,5236180421395638;-0,46561148649003464;0,21387925775168506;0,4921529461039705;-0,09517030393427767;0,2741634808110842;0,11317168208127708;-0,007210041505266235;0,6383001685039077;0,46287878202587013;-0,27029069498677327;-0,19803943604992216;0,3374760744166748;0,4848534012934221;0,07494679725999163;-0,28615676767325476;-0,16630594578144106;-0,03796319002703121;0,28562468849617756;-0,28447066915685143;-0,5590743419447383;-0,5398081286315622;0,4031184992233457;-0,44774303755805106;-0,3342236438923286;0,33229255218876125;-0,03817959816496288;-0,39113537786974806;-0,422010168200752;-0,012673139321109686;0,5080034440645819;0,18522132268883518;-0,004432241136076272;0,4353435157686668;0,05944119803511158;-0,2009904673640499;-0,30389584270232334;-0,06606462557783312;-0,2970628711583596;0,7562744600756918;-0,1882257916619795;0,2232542902910513;0,3926682980361956;0,3792067402170372;-0,028672231442527896;-0,5429628458598292;-0,0019422318209621797;-0,1970719280574957;0,29018897203795285;0,001328549036121208;0,4812750179047956;0,0812246066526109;-0,4722167929558121;-0,4387142251099068;-0,27381714980705335;0,031281248654865416;0,25626819527924494;-0,33389489345608603;-0,03785182396169906;0,11139044327453917;-0,15867905032315194;-0,3865134002677626;-0,13817498121671373;-0,6476488924891872;-0,13309490050316192;0,06531522370274834;-0,37996359076882896;0,5492257024887718;0,18853716971654272;0,5793200299148833;-0,8187040971378708;0,2539282878043791;-0,3968000958251049;0,08729262678935412;0,525177725563251;0,5871491393078121;-0,03129913588838097;0,09949092980618235;-0,4524593612816411;0,07054874105741643;0,5130974627608281;-0,28666737205322285;0,0768556538172398;0,4542449149589019;-0,662381266759678;-0,2971340759758288;-0,1713666956129047;0,5733859740090823;-0,17476443927592242;0,3060474058611523;0,4490567953021374;0,3899345117476451;-0,354397071722744;-0,10814974356439012;0,5641833628085985;-0,12060586903452614;-0,3923971948517702;-0,18044998243254023;-0,10797224592988011;-0,5625525442793834;-0,30022961422163463;-0,038994475296163046;0,3877980666587791;-0,088123940137347;0,4838555228306923;-0,12806467565753388;0,06984126190898905;-0,43763058096309754;-0,6361345943960791;-0,18844753849416038;0,367334603544684;0,19791134121017911;0,4387444702757907;-0,4554676255040406;0,1036979455657286;0,060300209404855136;0,1301959014985823;-0,26474060256549686;0,12380072116243943;0,4646849748956412;-0,013660943482238069;0,4575822939461464;0,482096577935943;-0,27134650389479953;-0,06605119609345021;0,11972050065680688;0,19250551604929383;-0,2932888382944597;-0,1209915339234724;0,08358318256369947;0,0338621995589441;-0,2938744960283955;-0,1977008319777498;0,5243427757472386;0,1476833835784602;-0,23271095316059834;-0,3675532947587766;0,0817738012033961;-0,4658791160061612;-0,4860264918786083;-0,4610016499851058;0,4235604254078494;0,39593468562086315;-0,0881468102529925;0,03179640274388993;-0,4452670781111568;-0,06559409052352759;-0,32598018564657594;-0,3271771217809956;0,465419327952742;-0,9195037906936557;0,19348768577327874;0,460943455290852;0,3033892890231684;0,4581876492775038;0,01678585751667998;-0,04745294488814697;-0,16967581879062044;-0,13249375371570335;0,11544684824664111;0,03196480550008094;0,27290866416791704;0,31039989309122407;-0,27258142685825715;0,19241608185447828;0,007456152991012335;0,3477791027970141;0,17750698879896362;0,09611898159917419;-0,17260954111006954;0,4957540332175183;-0,3856810749638078;-0,4160550703440957;0,4301511060997804;-0,35595499480306353;0,18814704476969638;-0,24336626360692987;0,15274961705408727;-0,3126422272979635;-0,42729102800291463;0,012296422534722311;-0,41552468373086415;0,3233197668184138;0,45049787920822004;-0,18167068657172694;0,0076995529894130854;0,08966158542405182;-0,5265941039492212;0,32283774994981645;-0,34759630904813177;0,06870856613950323;0,1189280305434246;-0,5515365854089574;-0,32610486878078715;0,4120603412287457;-0,2711072849562011;0,24873747209074698;-0,09698757264796794;0,7298315230622981;0,004504018640058298;0,13992773238857856;0,15645581350826232;-0,08003037140417896;-0,1064340539257194;0,1141920917625712;-0,2314856155157175;-0,12864289357920775;-0,236521487558834;0,6004030006482228;0,37933119874111837;-0,00926214394534443;0,5097694587794083;0,5041127105994356;0,020675394665307344;-0,8031557919686295;0,5128001807126196;0,13448265603715204;-0,4449048997951038;-0,3465392257088868;-0,01599115597606017;0,4112740149244668;0,2487090436809339;0,02764090699390601;-0,08357295998823154;-0,47114000340302437;-0,2697822713118735;0,11999710737241004;-0,7197985614749135;0,848842551487859;0,5346298883978049;-0,05185160871315363;-0,38954139407493077;0,00034617138256107146;-0,17906001094851393;-0,4324487762574164;-0,3406307193397989;0,4049552660769625;0,46683309442234244;-0,34355210013712323;-0,559317530786326;0,3032370765419943;0,37869264354094734;0,2467930820121562;0,08871354967113247;0,25196173161973423;0,15110866480530147;0,3681309266957426;0,2868607131406321;-0,06115762891360823;0,1769916820498737;-0,40741239901928245;-0,47084913034650766;0,3894002490957116;0,5963960216739104;0,4716253158349377;0,3143282305379211;-0,03959511130646235;0,026670799979030296;0,4255459673039995;0,10203119266711333;0,31538464156422547;0,05059861911928424;0,2489556746995383;0,052438501845707565;-0,17442656408874488;0,22064647281012287;-0,46521403992393107;0,1642458155231597;-0,41761212033765616;-0,23239750988147076;0,030576627322268613;-0,3212336433718782;-0,1261998252277825;-0,2623981962512507;0,10218322956484435;-0,39958552809881326;-0,2481447415813576;-0,27044471258006125;0,33614858458187274;-0,37790082414205933;0,38896601627424576;-0,057235293740216214;0,14714636510835846;0,43066994294578664;-0,23595727667252966;-0,8842082245202492;-0,40707561149607774;0,2839056361737813;-0,26721402418668927;-0,34149495050932793;0,4950224740269952;-0,013637017627660931;0,1235481573811792;0,30853472386622305;0,5384561436422876;-0,0569190032676886;0,05636941120274917;0,3664557474663966;0,05553021812724907;0,04248575560031036;0,7654412350405339;0,07621208161014904;-0,4261983236348864;0,1160772672791173;-0,31412694611107056;0,15362770207583604;0,35699166825804896;0,06598416023985632;-0,03505253434150351;0,5241770008359962;0,31080997914301867;-0,08892239032360902;0,22075749216326263;0,19073776003794124;0,3559095531476249;-0,42202264243119497;0,2251278145839301;-0,2400951338511235;-0,1731459398099113;-0,6211196924246212;0,12150417964998433;-0,3126424719960186;0,07515920574919582;0,39685420337923727;0,33922758019469296;-0,16495298510927675;0,6137682110903253;-0,157895158703237;-0,16344551268551352;-0,028184704509896432;0,18073277121261896;0,09294868661746596;0,15752844698881766;-0,18593514124791244;-0,8338866178297073;0,24154344165837735;0,4157131823725901;-0,5125930701852129;0,2728612876495265;0,10027312474736393;0,24845273735057147;-0,024174125932773002;0,0580355962539353;0,4416783974740847;-0,03430767068599219;0,22797967495195434;0,4705037532328427;0,4621772595273212;-0,0784022886388324;0,752590895460201;0,3867656373397797;0,2661223612476822;-0,48384228590916817;0,6776573057295553;0,25796465678077135;0,13781380309750255;-0,11595771275836947;-0,145859671246342;-0,4658394677183765;0,43662869139057964;0,16518903471276727;-0,3488405363034387;-0,10458280624875806;0,18411815421648828;0,16457057399356487;-0,35275083191582984;-0,2846602549097519;-0,33597303647219423;0,1349265036460964;-0,06864618924725735;-0,4583065706850151;-0,20979332523411848;-0,2412961458954466;-0,009134530038913985;-0,3960300126665727;0,42639397802714357;0,4524569063418236;0,38401427236444285;-0,2525737074788725;0,23783429229942454;0,3678780709457333;0,17466851485031074;-0,3424367622323216;0,2400878078527072;-0,14635449111394908;-0,324480058226701;0,2841767556086371;-0,21868576401209963;-0,3516960389214713;0,3484794900323999;-0,4938087350231564;0,402404468151318;-0,5065753301745547;-0,2552740461889118;0,2817343706752157;0,5106612769023862;-0,5267648361393723;-0,1274911126681909;0,3065412107325189;0,10813293187705056;0,638569741798542;-0,29880283198623103;0,06723112245216016;0,3508879177319131;0,21583905381736104;-0,4849663065859695;0,1730163038452383;-0,24703185521065105;0,14061885562633078;-0,277758450330885;-0,44271752484549914;-0,6017152226948616;0,49770494572610907;-0,06774812048149659;0,29658453848425814;0,4627638984963854;0,5653685161921795;-0,05371279569432038;-0,3714080867263299;0,5107127143779232;-0,09045404888229143;-0,025880592696623007;0,43956778983640904;0,10687380829856029;0,10317477969150153;0,2794647125187685;-0,15661430247953512;-0,017500917249909164;-0,008768085101670643;0,05675759049170707;-0,014462883915300165;0,030363729736633725;-0,18232486461367284;-0,048259463613083045;0,013449187383719344;-0,24682458646518055;-0,06031332688545327;0,4519092926341907;-0,02834938115544968;-0,25998654100068863;0,3579897355113084;-0,16115451875214892;0,17374486152632296;-0,31979011339148805;0,253168542046381;0,6251743389511395;-0,059542885423804086;0,24818014476953804;0,11008468677034856;-0,5561805822900863;-0,13303381317792812;0,17361506719251327;-0,21896165039165347;-0,15752371097894582;0,05220831939676122;0,5015394537602484;0,3542904555879344;-0,5777515595670636;0,36941835802999246;0,16751944741192437;-0,4382369187070136;-0,09970648124620739;0,1271101504652034;-0,13399980292773403;0,26444384713982383;-0,4612585277363326;0,16051725665183947;-0,3956236944309039;-0,12158438503159809;0,22603250208403694;-0,2038964484149021;-0,23518160460150098;-0,016038364519182453;-0,3028595553173142;0,05142042256810051;0,46548434432293206;0,12413914660467847;0,0010468818699425936;0,3635377009424928;0,5509376926029277;-0,48316286501714156;-0,18439562994951866;-0,33875924433118604;0,5198201613220261;0,4088074622087975;0,037769862908443363;-0,030655409647330975;0,21978615253494022;0,2627871641507855;-0,020952115266807726;-0,35610772190442075;0,13430223464022237;-0,08330519706953646;0,040966395543902516;-0,16013403080451843;-0,07731994732189701;-0,18656253702667042;0,067264243918932;0,2786452792828024;0,18012752837974919;-0,2817180841997617;-0,37594956710915506;-0,14682422003339457;-0,29969080559638106;0,1505880433237686;-0,0009724081385260274;-0,05524214075544853;-0,16780745324851593;-0,205383967576535;-0,4203997319705316;-0,39297948575656905;0,05685196948145199;0,016770954301457867;0,5395749735261135;0,0611267819665519;-0,40100791415627773;0,05944041275915121;-0,27418341274829094;-0,15077201723771413;0,35345322604282775;-0,17240860540891095;-0,06997902272185089;-0,4223317235550858;0,053367465352868716;-0,005739397532317012;1,0962015379625993;-0,4093348565668111;0,35066820673577237;-0,3049963346183557;-0,0060801574625886515;0,37863893339391724;-0,014713859667258864;0,3893273407027854;0,7215021462224602;-0,39905475190366435;0,4606000665633797;0,27207012092387883;-0,7634087544013881;0,20366503091554697;-0,14838625714723894;0,570745961367657;0,3015782353962725;0,18477517592569317;0,42941518106977616;-0,11976344175732977;-0,022501165037523203;0,36411170609071675;-0,24441509831414765;-0,6311669993966407;0,18639381535644253;0,4574499923871022;0,13424073024990632;0,19101587786963473;0,2821882904235133;0,0033673336461384966;0,16771557146998126;0,18859985956497174;-0,42720696286642057;-0,022007522862254266;0,32567631299095223;0,36489865356076207;0,009077033117667612;0,06592565412321198;0,15434027432336897;0,04663164479392946;0,040452419049387144;-0,4277729649368525;0,07685642278672133;-0,1910871208721307;0,23405820962010424;-0,43670888685434733;-0,2774019228461646;-0,0879004053582912;-0,35324634023783646;0,19853519382019613;-0,13334591464997472;0,1502923746268799;-0,49024569648000593;0,1332296360931112;0,3338255501965833;0,18968298875636516;0,10912546870261808;-0,3859857564441851;-0,2935520794258635;-0,25370980200336385;-0,5709652703663499;-0,30997243365639227;0,17082210925845606;0,30392986193003724;0,46110411270542445;0,12207171354934156;0,8054722442989529;0,22509740135806883;-0,6189999885541603;-0,16603664004064486;-0,3597471283423532;-0,1155477109305578;-0,3569199904128462;0,20897891335974536;0,5015439592004681;0,12675106148593518;0,0758369874756165;0,10831542705846589;0,06891945834986214;-0,2756452873160742;0,36885084219775827;0,4196248308256169;0,12458009976341265;-0,01799477115451872;0,5049098556335864;0,4046915832403369;-0,5645319075318065;-0,887987557387895;-0,5244984252996113;0,21869344841945632;-0,17474864745964844;-0,4228325226830614;-0,21678071759448864;0,34751653607898664;0,19821841139360225;0,0682069537595169;-0,14304844958251814;-0,5286491489670045;-0,06572116286590926;0,30109526156221833;0,3348743713611052;-0,1643723445386086;0,14051659765038044;-0,4023365160462746;0,23152419387597054;0,3869042777341629;0,4338816655224365;-0,26048922958928983;-0,4798129292007753;-0,3124023058771511;0,3878292772135414;-0,41489275943358267;0,0694730280474504;-0,24587593790196383;0,375480753382904;0,2841303934291047;0,01762147828068117;0,44929270982442143;-0,029113791181638232;-0,6393911017113394;0,04095712842903555;-0,08949663047493975;0,17888385025111048;-0,4366377098047828;0,036878757960279444;-0,2594772722589805;-0,10332725606889691;0,25305237992365087;-0,29306579281256645;-0,30877638636378824;-0,2346829403744992;0,2826447973418017;0,1739253537504036;0,41038349044044026;0,08712506656243889;-0,043004690972979764;0,5979644339884455;0,10508585255518955;0,3031459724595001;0,2796989063409927;-0,28917728666884673;0,14325694005212775;-0,03582518621874868;-0,09213618743048964;0,04376433042403271;0,6007314930164486;0,08020747050291542;0,01052184975854271;0,648858329648942;-0,3499935287254889;0,5076530160686604;0,3532001246647773;0,3992122594979257;0,46152734135294315;0,5864394937481465;-0,03474231397233951;-0,02452396976160221;-0,3256513877708764;-0,1937868701240046;-0,366753382547177;-0,5227959669104997;-0,24662716742976637;-0,44809912739854074;-0,31600821601121054;0,2928538855359954;0,03824505077411484;0,07129785810966201;0,09037533638534616;0,17914587118496386;0,11298455779376654;0,4562148997720746;0,36314085355228426;0,21224762872929276;-0,1185288669668286;0,13182609514511381;-0,4535276230418596;-0,09754114753160817;0,06412467092332857;0,011732946760756242;0,3913069664848807;-0,2734793066716819;-0,1972690132147186;0,048942652781509104;-0,7508277081986857;0,8496994935154842;-0,03419766389173493;-0,39762897238262757;0,428480261324034;0,20673227009466064;-0,10410034863741977;-0,14645013650777725;-0,4081604152671875;0,5255011307917347;-0,09766749099083785;-0,43172041013754575;-0,023200734755511425;0,30126886993918095;-0,15115726298979779;-0,04102539118244289;0,19929324732426207;-0,7627808741132088;0,5299215923995154;0,10573731400881854;0,27217484746110654;-0,09004147907070385;0,42432734018812757;0,173768142630663;-0,9351217835981882;-0,2851618004897553;1,0270439641079026;-0,027862731885106053;0,3622867312049695;0,05937691600807026;0,26512233067108515;0,15016601815141378;-0,7633283304259318;0,46683647662689093;-0,2153445496816236;-0,040719473615624745;-0,3141179844613277;-0,18513382138971823;0,09009069650304041;-0,45089418698439404;-0,5303522202109044;-0,28420052426681147;-0,43417090628646254;-0,4898297156972968;-0,3612732665801802;-0,4521217585403978;-0,0454546007605491;-0,20969435909856363;0,4812398171251875;-0,1940804039557537;0,12831093360235213;0,2079418313542243;0,4785819017974845;0,13964972301790593;-0,14602587534367273;0,4583622721023229;0,3345001291552306;0,30093309037357596;0,02167044967325977;0,21003998166227644;0,264049692789471;0,28822971332473396;-0,3882204165066272;-0,4963996080743088;-0,5763026477622277;-0,09773056056284138;0,3727986850009656;0,5435762339044228;-0,13107949018213835;0,4231300219604893;-0,26011483677054925;0,08998172169809418;-0,30790451109589484;-0,5941992495299337;-0,3791221311840787;0,3604212638003092;-0,06597174989220111;0,226048429239486;-0,24517308741389954;-0,38451492369080637;0,306400158234434;0,09170261210397798;-0,11422313642504882;-0,13818913270725153;-0,4619853942072771;-0,35154613346383173;-0,29934202111517777;0,17595668960482252;0,09800637639355099;0,36131761179508265;0,05122853050957601;-0,3727431353190074;-0,17243199301825185;0,40783434326175033;-0,16473490758666265;-0,12603507925901053;-0,419018424634524;-0,19138359277832145;0,08512165709812573;-0,5038529899678765;-0,5405790104736226;0,26532396826873084;0,3164957164240187;0,24229701072311643;0,6327403570084509;0,18679792347938032;0,24970174896166214;-0,1131722761438979;-0,09614171805596916;-0,16235724713882366;0,4893742017976628;-0,238818518245654;0,09755468218996015;0,0614235344699127;-0,22765948714692216;0,19459280888368874;-0,19150723694590352;0,1549855443643468;-0,1629332507299317;0,31919425048005456;-0,2383318115838836;-0,005218614462976357;-0,5818908106253858;-0,3132084391208035;0,15959009804219504;-0,10315876363858256;-0,05621612676481292;0,5123810622808145;-0,5898131938633504;-0,5280726014116055;-0,3747493690629074;-0,8039242623440312;-0,308914817021404;0,3574381991771158;0,31746010303752953;-0,1553978514212622;-0,03583242213714716;-0,060692186661245595;0,626719704765619;0,7974029560823201;0,531366355202611;0,5948364612518011;-0,19365828140550512;-0,24617244210479527;-0,4106387446831448;-0,3895879053636144;-0,5037104325472169;0,2752769429306999;-0,24274282132612604;-0,35644774546233643;-0,3463306654667121;0,44749710113613206;0,32269104599345705;0,05134784658778327;0,1594812442556576;0,6700722566994991;0,21679083550852665;0,15355131002045566;0,28134453442141927;0,00559914260415184;-0,18508123527132303;0,3098772893684462;-0,19250249693490046;-0,37865421905449564;-0,4928285358583614;-0,42992329171390087;0,36976614386253553;0,38851754920451326;-0,5201859407313819;-0,4866319377294754;0,230204119757746;0,5600885576347928;0,47815337820826104;0,14137102434242643;0,27988137541402347;0,2469671031414531;-0,07575318745768765;-0,06404800318541122;0,3650293296376137;-0,037555946816633795;0,23924166093798954;0,2670626165996755;0,3519613882021268;0,2823103896621642;0,017696045936338372;-0,3794293836187488;0,45259075652597996;0,9632738988945282;0,5440980361590334;-0,42656193176029034;-0,06788841775809834;0,038586637127974936;0,008651667295165453;-0,7679671111046678;0,2598390977410013;0,010876425636371152;0,07957690396795611;0,08090415315629085;0,2397207320965854;-0,30148330453953376;-0,06951289261909713;0,3703275830028113;0,7296767863969239;-0,2757269689153228;-0,6542482107653181;-0,0947542351355421;-0,3487084695060285;0,1495531405133442;-0,05716992265077996;-0,23412038715311853;-0,4444676142875114;-0,4227034009623015;0,08477199745404532;0,04477572053806736;0,09607706006883211;-0,5719762374433117;0,2772855418452431;-0,8154370243072679;0,05635181546785145;0,4754599612760249;-0,4080850031687095;-0,2924485358599889;-0,008499874791764905;-0,11047096621409688;-0,17333756569896053;0,8212202087388312;0,07084127162356092;0,42092009975941924;-0,5580920945745396;-0,39065643851784;-0,06270542070932945;0,2534522900353805;-0,5678982886459751;-0,2015088934810474;0,146302365630933;0,2709425294076381;-0,3508980127936229;-0,46280416139515446;0,47061944467794165;-0,34901461875545703;-0,4438476035139537;-0,04702834914465949;-0,11798651298767349;-0,29692625733675326;0,033906964468677546;-0,0254042005167206;-0,015172070340382694;0,09384718708183093;-0,06957322594256427;-0,44948980919457876;0,11016978613807353;-0,14804265068129455;0,04152661404263084;-0,4111932561649592;-0,47455778451389813;0,06269024553197239;0,39031051989116217;0,19109406893268047;0,4481984644476625;0,541034874727082;-0,8103534515840309;-0,06454157255268392;0,342444637484732;-0,3513572121270835;-0,05631403185706247;0,03610195343013496;0,16178550016267054;0,33433776906875645;-0,31671540927919245;-0,5012648728441685;0,3810273481693614;0,13665575656801074;-0,2695949960333384;0,18462538738278925;-0,23780516294320225;0,35844209270506405;-0,12119370837075705;0,41043684722956303;-0,1405429778936773;-0,1477671041994764;-0,4064653908587639;-0,20762347716048804;0,37154842120610393;-0,14092771704914717;-0,3316182545695738;-0,06844251230373061;0,04508136072079995;-0,2177521593492276;-0,5308615362425476;0,5982057414464225;0,3349055631483325;-0,8915118879431042;-0,15688480168758442;-0,10556315694945984;0,24315356933807086;-0,45320680473036096;0,139298227491244;0,30819410744757575;0,4763996105242834;-1,05940092686177;0,3770243682077905;-0,1691633151430909;0,07266458497983705;-0,1737183458308941;0,4277087840674055;0,31646052934857494;-0,3797470413616309;-0,10169451713529112;-0,4703865360592585;0,4561986908230677;-0,40004841517708634;-0,3357428137637996;-0,31169125991341373;0,1154375757165988;0,24225485246753758;0,4059020988673853;-0,0839986717427703;-0,42460208001133554;0,4138286769724286;-0,16470061502283934;0,08217192122041095;0,16312716490741078;-0,2354166984363548;0,5179290946433609;-0,1500172354349312;-0,5491769182412259;0,39579636415864256;-0,41542000516624183;-0,5437354592699705;-0,4845557406876666;0,07204791931891427;-0,09242004910818283;-0,1954576476706516;0,18606668736158669;-0,2521385525108478;0,13478494509459787;-0,6099271798709429;-0,002123097739456466;0,15147942479805368;-0,6983070434069791;-0,20581997869580823;0,34525174588968627;0,17762433951034026;0,2255710956246999;-0,14230656213390938;0,6069504395371546;0,49558506515220707;-0,05189567540023519;0,1950566790430654;-0,39591801387166786;-0,4407712584334972;0,40667504858358505;0,7507241988957134;0,3751270463905304;-0,30771358021770223;-0,28916155313934194;0,6579633514486519;0,15173730518155484;0,49767858837609763;-0,23226045204827553;-0,36977819933448947;-0,40728039353482265;-0,6158896891867849;0,35540909629077666;-0,29475502377532475;0,4537693727813741;0,3018842039680235;-0,4160851468207719;0,3977382095081219;0,41313053739945893;-0,2988245031316259;0,19673815400429162;0,45023114383362733;0,1608745706072725;0,0426492509865107;0,20513130402522867;-0,344573539309913;-0,12277062420773462;-0,22276997236208868;0,5160137143932774;-0,2048020433814115;-0,235290709055302;-0,4111140165992261;0,03630191819845991;-0,49693295518561054;0,026235482065776517;0,24852346273368384;-0,040909363685767565;-0,34407786928754375;-0,47347660641523;-0,07908421933049674;-0,2647514488534405;0,17813311875983248;0,5492928695685438;-0,020868515464641038;0,030382678748167715;0,4097831592034799;-0,15153345137631585;0,4465437738181538;-0,04624328585328593;0,3169219983010127;-0,3533216220126702;0,14315949585948765;-0,08726520574113787;-0,44955215879125837;0,3224687761377907;0,15346128545312823;-0,19525318535909522;0,15518286182512148;-0,9866453647063946;-0,052804838853142556;-0,37390832111768846;-0,034547342551057784;-0,5629584702959795;-0,17162747078404048;0,3958534969888821;-0,49410294818916717;0,18536765020442952;0,6227121310603873;0,15142897940200725;0,1611472202146386;0,10009331585136946;0,30904639103037146;0,6227750266854981;0,2196338688814928;0,638290923580677;0,6480484262893952;-0,3633257300668059;0,21788910131665493;0,01094431483081654;0,2591025637118798;0,1356797657471946;0,3856282418882398;0,49223377849641153;0,12685959708346353;-0,30859620561814316;0,07194026098939343;0,4599555398414385;0,33497620414401613;0,11552799631225208;-0,07130985275111566;0,3965020729780904;-0,04528998529347589;-0,45485672687619466;0,027038228339868367;-0,030864927132854235;0,49189657265065234;-0,27811701910594006;-0,45685583575893823;0,4064114575553593;-0,47777914700908747;-0,12800488709431912;0,08959876512983152;0,36705408883487844;0,44313859300278297;0,002087171284850815;0,013413700949358658;-0,3798072687505644;0,256043744086544;0,03161003143755771;-0,5182304099323205;0,050748845572379235;-0,03834592655229523;-0,20578799880879817;0,02397711413496572;-0,07781746460686602;-0,348183293940213;-0,40539667592637174;-0,2361093025771213;0,18537671531996322;-0,17857941040526285;-0,4566646178835497;0,28353713670835223;-0,14913090855131217;0,14080526321836495;0,10184925137574027;-0,45235121230099207;0,10195899643979887;0,07711175412665211;0,37313553820427203;0,12965790282531883;-0,16477848981443766;-0,36378980606904165;-0,09032202118757109;-0,18640972153641583;0,45495764360200325;-0,10512314264976093;0,22913662317995237;0,4560788435844263;0,042094351065319065;0,2662722592176437;-0,4525449250247461;0,2941012530848883;0,021966883154579175;-0,31141863373364675;-0,28537084514033;-0,24669284829096266;-0,2745167228559273;0,26304940540033145;0,39242085142538463;0,3695627497066439;0,15040374875617868;-0,2751672920701424;0,23495706184437362;0,15568373273433325;-0,3081431557530233;-0,40029472686786227;-0,6290501000389199;0,1511965261298537;0,21936004837609432;-0,2963202143431798;0,22311851110745223;-0,21313250439087775;0,47547304036353655;0,5776633750473864;-0,27776165916340345;-0,5009925774635294;0,4982857508089513;-0,1520464357366088;0,5227501578961345;-0,3144734220799187;0,07661623080456546;0,4599602770690669;-0,33889505164182304;-0,545240934217791;-0,40096086007230985;-0,45573346808558207;0,5221798512737141;-0,1672802257778639;-0,5523665938173412;0,09888816243786051;-0,36171812233242023;-0,17861917748943051;-0,059123726877942866;-0,05913144447198326;0,02427384057457845;0,41869165114092294;0,3888158309847897;0,27523391687313814;-0,1466244347157785;-0,11019298078327895;0,4206133214145508;-0,3863828436294212;0,21744486952004982;-0,18735853758131177;-0,7325888409890908;0,8812836379338936;-0,5033785019277754;-0,26908147335801286;-0,16311844998296737;-0,2425920817038591;-0,4289568214660696;-0,7082163475072804;-0,2521243811700167;0,42811692271871166;-0,26854398546554;0,003889739970493716;0,4722025612483657;-0,041146999507482185;0,037786891954998625;-0,02652199319968241;0,42513018382971657;-0,15266018120280847;-0,3981251048190075;0,29406792924347297;0,4177354649758859;-0,37600885968366254;-0,41857334725431444;-0,37244805727592656;-0,4256775700113843;0,1852457066603074;-0,06620813580393388;-0,03214205497745841;0,3058476566449676;0,1599943509731534;-0,017979710349848688;0,025793380558179205;0,513027764034867;-0,507777934371324;-0,24570333785677967;0,38373268305117103;0,2631807922555704;0,47985239602132185;0,07685585976480157;0,09570732506106036;-0,33634843914076457;-0,38065360229229045;0,9961045702356682;-0,14052608073100803;-0,2731439888227561;-0,3494445569774896;-0,02664461049048135;0,0893851018122834;-0,3480682255660799;0,9729336699475648;-0,12198064845772157;-0,47834683106983655;0,3266751687366581;-0,151787355601553;0,31724515909953754;-0,4885231569945667;-0,20406655836517051;0,05925014250470307;0,24767813774251982;-0,5682569619126476;0,02014010219165913;-0,12489149098885871;-0,12291997135740802;-0,35045461401414985;0,024974174546582264;0,050158357925543115;0,3810934331664226;-0,18956680164173026;0,07637785292214416;0,2965983199333029;-0,06432596132864395;-0,21134581799306798;0,48738967450718185;0,15489967678147143;0,10477807684852236;-0,4899943166437775;0,12433874483056988;0,0024628388987143934;0,14182331705767695;0,41115984469124967;-0,029997789442555017;0,377619740179991;-0,10200061250341873;0,4336314187249908;0,1520372196154572;0,2668773826869413;0,004130847285437032;-0,5351316348947898;0,4464994423699554;-0,40716975057602334;0,5793567142124832;0,33695303110579744;-0,3628117033904375;-0,028658702906914003;-0,22688026616876764;0,0005801651445209134;0,4874107484274393;-0,4767369846282427;-0,33095097124466843;-0,4115236379410346;0,4739988876022587;-0,34425066607964416;-0,39538753142341304;0,9125032356555086;-0,15869658124892896;-0,6115337773906095;0,09470956915705421;0,19203761399883149;0,1714017099064134;-0,26228049582895757;-0,19679133576282806;0,638698691144896;-0,45500265903983106;0,05471476697391653;0,29061306777280066;-0,14411762918466495;-0,6059706981224022;-0,28254084549494907;-0,4297018271304793;0,3247843409582638;-0,2260678853099003;0,18555985044048975;-0,021183638415145076;0,25182973928471025;-0,18869524856633377;0,11596832543194356;0,10796123896667337;0,1337306588034846;0,276913071108879;0,13726497718636987;0,5323367864909841;-0,5473267781902813;-0,24583604166103687;-0,35273251703159864;-0,4061297120821759;0,03954304546726077;0,49459327721460195;0,1139334526938716;-0,07325404734653213;0,2496542093733239;-0,3476963329155545;-0,07257874386925539;0,28005958767782624;0,33877930036868625;-0,09844478959337548;0,017253163675084858;0,020758387710161013;0,2509148234502543;-0,37897298974396004;-0,2821073255324503;0,44545462365140914;-0,10702395898052978;0,07936115306664861;-0,3255070988517548;0,30320838657988014;0,039568207427989735;-0,15601936230497734;-0,4428655599411378;0,046181385421867026;0,6433519890009582;0,6202278020531767;0,08330778964143265;-0,4897348323902888;0,7736493938386517;0,2567931637719706;0,2236823573514616;-0,0520616560721505;-0,15423711515323255;-0,15012447190958678;-0,8692710347811743;0,47774106148153817;0,7357106723739572;0,09421129651201347;0,26461374122253567;0,2808279879177966;-0,27632344704090045;0,03538667759955208;0,047429858884977326;0,3450543393852439;0,22318069223992906;-0,42150158132137205;-0,3359757580437446;-0,32734724205592564;0,5065823058644928;0,016831204298800605;-0,08846480644090428;0,11824057192901767;-0,48782145730833654;-0,35107858661732794;0,25095069993998625;0,5867703352516965;0,5154855652538041;-0,5710489118088137;0,06308526638853344;-0,11307332493710734;0,3390924900661639;0,22622065943331182;-0,3168796504512241;-0,3051973511275068;0,04928491483076358;0,12796875998329926;-0,05994879543984437;0,46193965389828423;-0,008372118561034632;-0,17940952408046;0,16995247467455107;0,14732980497056164;0,15966346641122467;0,47231589001421415;-0,4689576587007621;-0,4111535880547642;-0,31521395290782933;0,15654343386480035;-0,27155886242612626;0,3691608652065722;0,30261753968496774;0,6136516860551261;-0,3280547429936154;-0,0378591080250685;-0,06725637816209389;0,32264450472651385;0,13139310192197362;-0,3357778583895294;0,23421223333990546;-0,46115673664424456;0,7450053985129254;-0,5472024501920422;0,25105061591624167;0,43320866102179273;0,21586999137029028;0,39415143760752264;-0,3624407336957909;-0,4412095264866508;-0,28588927573046286;-0,19792573034279753;0,3517673659420345;0,17064571452166044;0,19730701717321725;0,07090831977530665;0,5014467010164465;0,42216782364868405;0,13275721181783848;0,02771426248392267;0,14651924033819505;-0,3032588650800574;0,2952173415121736;0,1229775953280671;0,17197609079435974;-0,07821546519890547;-0,3377752611567026;-0,12128140366814272;-0,3537638823914199;0,054806685623127266;0,4219068439411985;0,15249060123456998;0,06386261346934644;0,39456141207715556;0,3343164580044006;-0,28197184301141875;0,23127756575513195;0,15031514111854097;-0,3350798118371811;-0,038584237766183686;-0,4608571287009929;-0,38346437805991573;0,33926582201326577;0,3667418316127022;0,5878358367609597;0,09026161360375762;0,4789218728192818;0,4495952545976845;-0,5005425894801667;-0,14702433661526262;-0,08868490325507081;0,1716476093703032;-0,07369338196366618;-0,10762270698911021;-0,4351833347024137;0,12125630861176018;0,3134256504407802;-0,008943062089453158;0,377447554557542;0,21081981537396668;-0,09671604447440034;-0,14012124574236073;0,43266767635185166;-0,0800290953309467;0,08955214764310901;0,3361974058935889;-0,6158265483831992;0,28480580861684646;0,1993878374145153;-0,06064823695965563;0,1740542200127662;-0,30417656816821803;-0,2870641312779408;0,13931576258854012;0,1891476003083898;0,1661494366927654;-0,3960255770361632;0,43477410661449817;0,030540453002887297;-0,23572820171479247;0,11576938053739479;-0,33796231105791247;0,16753712634652815;-0,21872509402325208;0,3200885214659073;0,4108969751917752;-0,12752631460548625;0,34253076149297346;0,4655579845332472;-0,34188104062518315;-0,22205100742347922;0,3792972712397692;-0,39247197593220934;0,3069478904923556;-0,3322749251790373;-0,2620276124128018;-0,2111576787001441;-0,21318357906257457;-0,46705400101719463;0,6184681280996189;-0,05224839586243333;-0,41357242530641464;-0,16394826424152864;-0,08281390975697797;0,2890459646930957;-0,3694961595849901;0,36312023618157474;0,4548700320158273;-0,06946617965080375;-0,14941974560632168;0,3770789286288432;-0,29502856757395907;-0,4866414379847008;-0,38621652836550274;-0,35132656064461876;-0,16063986356185175;0,3331892157829531;-0,30207756599069324;0,03263823615582072;-0,024942172862863543;-0,371489964871282;-0,23561427724905754;-0,6987506430047321;0,17653487453049954;0,520399145926926;-0,00022161445111641484;0,008279718255521287;0,008676799309255514;0,3667420597738359;1,0502122582462898;-0,6413859202917694;0,4207092407484946;0,051854926363883946;0,7548485910439983;0,2826841515486995;-0,4625851131095145;0,046404286400956764;0,1731356717328059;-0,0029258196434766553;0,3021149406719594;-0,14545074078139555;-0,42574273423323217;-0,19169751939323273;-0,2186529754694293;0,47224451811304624;-0,6007509954192359;-0,24774978321821123;-0,08848739566985045;-0,5747507411186923;0,36090048045272355;-0,30662024766445095;-0,3005129801554325;-0,2607304853588209;0,20506857613150228;-0,023293750160228322;-0,20311216464717596;0,0842750352927711;-0,3027870293166002;-0,07560192638690061;0,03099153585322533;-0,004941839919847525;0,29068419066946016;0,6822858378348706;-0,300690693622721;0,042411227085883164;-0,2790687170169643;-0,17935714245241088;-0,06633926553294105;-0,05739553820062545;-0,3001754177979678;0,06983718757789625;0,1809710490687192;-0,43206574155725286;0,07915052727983818;-0,4335017219288123;0,066810676463388;-0,35385508582549374;-0,2840034914298298;-0,22810998905363808;-0,4644953003334936;0,3204405983735041;-0,1609516420265102;-0,010122904795194246;-0,30434324904619126;-0,47938825726704615;-0,49833313506928856;0,010619683280096975;0,2791837958690419;0,003015848586000213;-0,2842565599666024;0,04805838657997697;0,2386726391721287;0,03201399693342294;0,3033689888397431;-0,23142823218109337;-0,7220230850240912;-0,37844047196549385;0,29335084052952076;0,1423906456685709;-0,15441741192705094;0,34081348978011994;0,6178421191348095;0,8048336826801239;0,6681197708868063;0,05823684596290011;-0,4607587934085429;0,06827567546272667;0,001811311182089519;-0,5217216190166509;0,18567255657120402;-0,10672299737960082;-0,4567189829375583;-0,3816736828393555;0,3731036734144939;-0,29247191244345166;0,31550838841412254;-0,045801055051815684;-0,018773735037731276;-0,619320056557087;0,11507587774927933;-0,059553784420774386;-0,550842173799233;0,018738596069296655;0,47352807899239635;-0,035947513808085696;-0,4424886579234492;0,29926668876969875;0,5908514394795435;0,2369744143191082;0,2810710741923685;0,16851636097679226;-0,3503397085571335;-0,7150355246338401;0,18528115257796007;0,3742586987054698;-0,1941757293719009;0,11306799398774656;-0,29496440597097046;-0,34216192342118745;0,21388804884379672;-0,1809363468495859;0,11128898235884405;0,2533547779693291;-0,009587400585570673;-0,32319140073543545;-0,19398882607720316;0,22933128639518147;-0,2517713048481452;0,04063730655943023;-0,027274152541191067;-0,17084849560909618;-0,5184117008023864;-0,15361910029364378;0,4642047618021687;-0,26428384579336345;-0,143618911736173;0,04624043179845831;-0,24438990888162496;-0,20837554820347556;0,06846982088617624;0,5067531183874864;-0,42012899537265325;0,34810883220470223;0,11895648257627661;-0,1414599719898368;0,06158979299241966;0,25012523873249326;0,5033579671853953;0,32119122252793425;-0,12050190999657998;-0,4665763953017822;0,3665286012561852;0,0701383657033333;-0,19555466529303128;0,19920065711640786;-0,15062995281530664;-0,3307834850892993;-0,17531022156002846;0,44331758673819555;-0,33751672799047894;0,18867488430713944;-0,4092009565904775;0,2696897266244603;-0,3857159387284623;-0,07553675876758145;-0,16010041939655129;0,01862318753536223;0,3466015304045699;-0,6183513608127723;-0,40232488802868194;-0,5251267417348757;0,24733513472585505;-0,3457374288915544;-0,5000023664016264;-0,45052637461624473;-0,2185918674153205;0,4851065936181071;-0,3806024951098844;-0,5865554817913476;0,7347470326687557;-0,15695974417199887;-0,2872749798987303;0,10167809035359744;0,1265219059019013;-0,4826610669549959;-0,1161405712679556;-0,19177669002516082;0,3555887693878896;0,02861331549274323;-0,3479364578793907;-0,018503127333252246;0,0867963310738307;-0,41908121880994365;0,18847995626121333;0,3297717384710913;0,7851365073506981;-0,33515813571595154;-0,18114476631610468;-0,2813027754276309;0,025702607056750235;-0,2563472892709998;0,2531429780686907;-0,6215302223611631;1,1265424714051244;-0,22951013985883695;-0,19696616755716997;-0,20066492295169186;0,2172089990601604;0,004113100147375096;-0,16508529223748522;-0,520875822584543;1,00065783740311;0,30006730247529345;-0,45189430723520063;-0,1271539881165777;-0,20730757537327357;-0,47171529901002945;-0,3578749495766681;-0,1028416223093674;-0,5087186286780242;-0,2895292611202529;0,020898519485871705;-0,4275459151281718;0,35695885534599586;-0,2496747851371919;0,3067063847636044;-0,33444256556305374;0,1643478415002674;0,021042325306513496;-0,23370810662919672;0,2971808359653871;0,15754320169752534;0,4702237064770816;0,21799379429928342;0,4470241590770606;-0,03903024614358959;-0,33635601189220127;-0,26144866722924787;0,291931323233431;0,25741364736445965;0,4920822507871303;0,13330256042050653;0,005040738757987646;0,365255056010501;0,07344129909879031;-0,47394508176489664;0,4245201753511998;0,04165277380195236;0,025482791480728174;-0,10529920333080604;0,5215170789966299;0,02965106809059343;0,46583515087356064;0,2801843025869832;0,48877133304301085;-0,38850483396477625;-0,04487968742453947;-0,22299844615609546;0,22738218010092567;-0,04892243160284742;-0,1283862111348903;0,4356978065504967;-0,013629947571264971;-0,1695504833800327;-0,17543877968197913;0,695876435360745;-0,11847173664054465;0,5522592832405034;-0,5210010324360258;0,06889588033310547;0,05378497672074727;0,08982538284720143;-0,2911574350430087;-0,0023366427376627866;0,31189979220184155;-0,014107123890533762;0,517402579428629;0,16293084887387999;-0,1422080906253658;0,4974070083626269;0,1302944341618295;0,40337665788616145;0,022570506631159813;-0,32347893951275825;-0,4689080426560117;0,28511542385515204;-0,1447707261838146;-0,5272238237191981;-0,26587681441319666;0,6353833002625915;-0,19730739084230192;0,3356925090211802;-0,6704179500865807;0,2668744401706175;0,2513040642204601;0,058104250832297435;0,6017297509673523;-0,22457446655797578;0,6575077582744041;0,3411713932864371;0,16559295273002977;-0,5055959218269119;-0,07037986254071757;0,36884801837017717;-0,3838545286233363;-0,0784269540109484;-0,021154300352407097;0,49384766848147843;0,3006240606993009;0,27562746779949915;-0,36019062905018495;0,4954499726298147;0,31894928060807654;0,21789114237201143;-0,5321955243671385;0,1387086656024473;0,060417034485472046;-0,13228703999652142;-0,28465036266469573;-0,4761254999718769;0,23677904583491297;0,26864469459214985;0,6024247912340622;-0,2866453907523918;-0,19534697078034458;-0,06909319662764131;0,48106951479977267;0,20080165526729774;0,4521673468303289;-0,017208438722764327;0,13033105515693677;-0,08649162285417124;-0,37939129845986874;0,075211426673806;0,25611094055891004;0,0345390405384455;0,6184334351188052;0,002661040732195053;-0,45887036354145744;-0,0425321809602314;0,4567605895002791;0,8578140115300615;0,1057293530562785;0,4310641547811494;0,798536657692726;-0,7814485075493676;-0,5391827891378482;-0,6247268786777659;0,9485273741889607;0,21503878667453463;0,2784976093019924;0,4036261498383566;0,8148427020653439;-0,3826281863317543;-0,43452252803601255;-0,7338963738708258;0,8815514979878816;0,48124937873306356;0,29660657788083183;-0,34570563113837116;0,7749931617192629;-0,010664284220550943;-0,19747733741860557;0,030309400350378313;0,2554485295812615;-0,50132169802824;0,03970680832481758;0,015157097455167965;0,5555911095629074;0,5387803461770753;-0,5596216545161461;-0,5613259877885861;0,32263233181375445;0,045668015458184365;0,3757270060076276;-0,27778299628250325;0,032144779441722615;-0,05328808846070299;-0,5106351860469427;-0,25620459529606965;-0,20107133746180714;0,4639339277682285;0,21473477872527136;0,06619242731400116;-0,18782008793780855;-0,64291767048028;-0,1657314087222938;0,00704110508163516;0,10448112930786961;0,3101308826246447;0,2606409423937894;0,21243413400842046;-0,0033083030369946633;-0,1804703810455173;-0,10105905944281772;1,0164330811297588;-0,6667447567915649;-0,24312000160719324;0,2980542641944906;0,41602858275607096;-0,1428603925293784;-0,150966140211243;0,4198134624747228;0,10828351686147884;-0,6137499408936091;-0,36823298154495804;0,4650582257917748;0,4523417100505011;-0,08183361487561289;0,4727615268895224;0,3787626726649443;-0,3498338085667192;0,18758110110898357;0,12964188121342668;0,34263055200018;-0,2683096194799818;0,39272244944988155;-0,1888383569608159;-0,6208669497600203;-0,055671655928877746;0,0621441006757645;0,21293739520477326;-0,4659052113851081;-0,18390051544064426;0,09997404905643884;-0,37852335790341324;-0,01986557487667584;0,014753201009131562;-0,05470801761156472;0,17083835201746456;-0,48634171535082316;-0,3295710949994754;-0,4050284853077227;-0,884699165814036;0,3357741896476308;0,09319253761204338;0,013730902021450182;0,14166490257128925;-0,3264992100545913;-0,10878968532140852;0,43651605752628997;0,12626512447510502;0,14848101028848226;-0,3947705822390643;-0,25496382514194643;0,28884579076827915;-0,22950243464023598;-0,4009961127751663;-0,1786476724560662;-0,1606889761380422;-0,03434531838197518;0,16540939901426008;-0,5434450257671689;-0,32226208543776674;0,036687564426246724;-0,20453725569764591;-0,10833675804786871;0,12266378465367703;-0,09614066337676415;0,09158227971312635;-0,02425189753964086;-0,10927623036177547;-0,26533340908746156;0,23651998525303625;-0,1206755656368844;0,020048356275569786;0,45209369324048343;0,329241463726601;0,1994784795196279;0,03128485068419021;0,02192837236105408;-0,13887343640900215;-0,1979341354694163;0,23832432357236993;0,42977797061604683;0,5409387056127104;-0,33077018127599933;-0,009139537655090166;-0,2351006013843632;-0,46295705248934393;0,12879188914455614;0,3778236693710799;-0,11010061010672079;0,05072064386151043;0,40514230903713744;0,09978555079971535;0,09123989363077636;-0,41800785043074884;0,04554814541245715;0,23672223506841758;0,5965071992835561;0,2627514618572638;0,18102593454173016;-0,563145556316075;-0,4735375123321447;0,40375331889983485;0,14594188814345938;-0,21231624986226486;0,10316018840143276;-0,3093372793655065;0,0033711091761842774;0,12247737911116756;0,16190814979122214;0,37075245877196006;-0,2404144060246393;-0,3955862247519078;-0,27123157778402807;-0,45222312316691504;0,3684721385434338;-0,46256743981012166;-0,04415989121058581;-0,13647212359679375;0,47162612951350236;0,4804035552875971;0,5801889416460672;-0,2688540568114261;-0,10462179154844517;-0,30494791569447394;0,2587390101290635;0,37016770286190254;-0,6940618715367775;-0,45857401569286627;-0,17416831928551185;-0,47604845987819605;-0,22473471395965838;-0,1523869464259507;0,07580355120369431;0,6435604130364001;-0,45964117318382547;0,05914644521646064;-0,364447565766011;0,4153615187580991;-0,2734158238159134;0,18196016529892528;-0,47659946655080854;0,3192788187629192;0,5972580165157173;0,1664451844621866;0,0674297529503951;0,5999231785596748;0,1301931433347541;0,2898282577503266;0,32736987561653574;0,520269343073833;0,09986543055704454;-0,24607880112607966;0,20038485275268506;0,4940222668988804;-0,46816387205719356;0,6319795521468221;-0,5015127228492051;-0,0023393974829551216;0,20381611091905172;-0,02001421648723119;-0,6036657535314319;-0,38061650443401013;0,7579858319283599;-0,40411774120064436;-0,2715125913942421;0,38459072664273636;-0,2138299181141808;0,6113419152246804;-0,1059998692362313;0,01793413073564483;-0,01702660336717467;-0,1960138502849597;-0,20166994462971755;-0,491694609626996;-0,12593650271636647;0,40590605664683677;0,3404587096956924;-0,10909418586183516;0,29917271122819994;-0,3805500092667226;-0,32988768332033447;-0,03464206695348931;0,0007184811500831848;-0,04576879539803944;-0,25514639461616145;0,2752755284325746;-0,5011112438451922;-0,2898907186653984;-0,4636395097440308;0,545751343769433;-0,015734916580210655;-0,1538569761057995;0,4449970718467084;0,21471119504669728;-0,477479240533576;0,043412371575750106;0,002810090689343782;-0,04879349390582524;-0,4340547778844317;0,24901485141329024;0,5506844985378109;0,30593539061781705;0,03129315698784359;-0,3779206784786118;0,03918501684977541;0,10483152806605991;-0,6039527972593597;0,09320547240214952;-0,403591992985194;0,6793893896239344;-0,07701161926234772;0,13925213799729894;-0,2500963099917957;0,15100318498084933;-0,050107763294988165;-0,015864085794672137;0,247628621717216;-0,009773764723394586;-0,12550674678372992;0,5347101783206747;0,24255696011661695;-0,4621347574908873;-0,5183533852348173;-0,05054442540297358;0,2619048320357857;-0,37649705554015445;-0,04490239548753708;0,4443692914038732;-0,08967363105262223;0,058751378175433744;0,1564218320409189;-0,05888350254252255;-0,12453182723767296;-0,19748835374750193;0,019863823526408336;0,03705323710155387;-0,4950344587177722;-0,4082706885208759;0,23403611252358306;-0,16385903047027656;0,1522729354938686;-0,21512898424462185;-0,12212173814599077;-0,08001098860601573;0,11040966660841416;-0,12323113390984562;-0,4441959063487087;0,028984309787240443;-0,18389335913720223;-0,607275840148304;-0,45677918121843725;0,014835323241000875;-0,23804053316231963;-0,28476538402670215;0,6082908059505341;-0,04922197220859064;0,07638195856639222;0,7359895796746696;0,6526388604229191;-0,3825590647967047;-0,036808679704730146;-0,19291439291262819;-0,2650157670834617;-0,1425326019158471;-0,1148325574806626;-0,10634439943199199;0,5408184772647073;-0,1597961221893284;-0,024467771605610963;0,1912742343364634;0,43952740346538555;0,026759698176857822;-0,2572562867294841;-0,37015180051394364;0,16413441411975818;-0,1762120149496162;-0,403496927901891;0,37724226712627557;-0,12455966422300253;-0,37866707732314603;0,12082366037882455;-0,22443726562794758;0,0063133375055229295;0,23631453735200442;0,11657343326360854;-0,05923017397402715;0,39398569326595295;0,5903756088795573;-0,2775620476448907;-0,21389151093726277;0,14099973964641188;0,35090092401032263;0,3669452421040072;0,14646045774699176;0,2840367365709346;0,024749514786054905;-0,6284661213171535;-0,251799263140748;-0,5030678606050349;0,1986314089536205;-0,3071409331510475;-0,009582965139473022;0,3909562246556091;-0,11750747807925718;0,07990613858084333;-0,13835202731671237;-0,011989830037628914;0,2969783739374338;0,1803418462294456;-0,0414821329497544;0,4410226672585829;0,36342869755572765;0,36284961036604413;0,6107626797974836;0,3536651872889483;-0,3524293004897557;-0,12341950409973407;-0,014057620271809132;-0,5236154833112994;0,16374873198226378;0,5546055541090681;-0,23852824024104494;-0,5998258229631427;0,0271037872240954;0,266460737195088;0,40128449308188535;-0,2530201823297617;0,6193215802889304;0,1566633914967755;-0,2640434958832478;-0,1740492576292113;0,23555724015931287;0,117304288470877;-0,505941049893951;-0,21345731618886285;0,5720008793013044;-0,0614354747058247;0,3912561644308828;-0,017152562030448227;0,16248436872803124;0,28093740290329083;-0,5295676878916882;-0,6536493663964572;-0,09921609431943516;-0,330787023971538;0,14543715689828884;0,08327180920842955;0,4990015850042043;-0,22314516602796142;0,31466989747903384;0,15901918415670505;0,3000121352611646;0,20567260303995127;-0,22752209303377177;0,35564623581631466;-0,33797292265165685;-0,43071812165475637;-0,38819118070392583;0,29653881990728076;0,07935140424545542;0,27539456109789323;-0,5730957365524615;0,27094551195023225;0,22321449468281318;-0,08584820989289063;0,459918779737723;-0,0785095217380404;-0,0103212956508446;-0,18339367344142524;0,06970213228147695;0,32339921069376026;-0,35901316931958693;-0,11299004007240586;-0,3244535100673188;0,3089602665628873;-0,08685371695800854;0,571160872824173;-0,6996450953552065;-0,37082462849513353;0,02371068499949834;0,16051563390800816;-0,09039938515807538;0,6586344581702027;0,7309920145579113;0,24206456903403498;-0,7965411533035578;-0,2653795215328623;-0,035825080092564666;-0,22972455061152092;-0,14319992506997378;-0,5123945783051203;-0,23673731428140463;-0,7593298319218565;0,2795253419813552;0,441307404710305;-0,34350544244938835;-0,06170660135569696;0,05111152906381368;-0,1965347313964062;-0,28159639684521004;0,22409585613225952;-0,05812547170006434;-0,0835701048637523;-0,13239805437064608;0,25884406377851166;-0,31154436406135144;-0,3969759564193747;0,6284970637522777;0,39613280988253663;0,2761605185142624;0,4067455808477606;0,09453971397371558;0,2633578588274465;0,2633021509985572;-0,01011523182042339;-0,3549815467465515;-0,17754122941368014;-0,07854803032491554;0,13481973995804858;0,23461984221180826;0,31922575957751065;0,28159735609988684;0,3955677698346222;-0,2023915527165356;-0,19958463963481377;0,08585272414392704;-0,15796620639908782;0,05567209283789534;-0,10335712381857982;0,40078202912374694;0,1283667442975989;-0,4678887630094669;-0,2774597943962278;-0,02469103727260158;-0,09418764371186265;-0,3353813048885079;0,25162538353603076;-0,04678132573884726;0,3494674208714915;0,20675422093292203;0,5217860376963455;-0,2714711977785013;-0,1633421911457287;-0,08465732645483562;-0,42160936415364136;0,2910502603680673;-0,11879531468909377;-0,21968231698648538;-0,18999514817758528;0,4315063895887047;0,20296091384773698;0,21484249897771604;0,08524885997499858;0,11863079979383488;0,13028802298966793;0,3031681960636401;0,31728076691640883;0,0915035937350052;0,3882955238069517;0,3055635484140223;0,47775561192499555;0,09227646158823322;0,09646958950877428;-0,07460240306221633;-0,4275125733085093;-0,4757903520461381;-0,4191232367871242;-0,284722115357906;0,4669401991497639;0,42982475739359155;-0,1796832591484179;-0,43772381278480904;-0,39869412439179075;-0,08203455514610472;-0,11840177543941821;0,03659950586987037;0,3553744547884021;0,27956210765689177;0,18903735602272084;0,4958499479941159;0,4960718446954618;0,6903180186763374;0,5377103537627946;-0,31038543564789245;0,27084035048599747;-0,29610714594563103;0,12984809529482766;0,9546764072322051;0,5782564124653474;0,48110701841577386;-0,4226803106669341;-0,3693955563948968;0,12244193861756154;0,11608530458638693;-0,4407182664880575;-0,23225890519672168;-0,12059061200514623;0,029184239767851776;-0,08172425505977197;-0,42111914841148423;0,337439884924941;0,3929302507074992;-0,40775496484880025;0,4263814303308048;-0,030517440667715934;0,6123792515573936;0,6253356717811756;0,17803577619703018;-0,42193201287730087;0,025642555620660337;0,010311124865896453;0,2797669120733221;0,26475929073764254;0,24565200506278723;0,293218139202403;0,07708928608047842;-0,25487552041126177;-0,30659384896418546;-0,033514259244176094;-0,5096389050877778;-0,6951533449268247;-0,9777976481232327;-0,9215021257298294;0,2415823194024825;-0,10552692657808355;0,1456674144804827;-0,46957815405705666;-0,3327960699111504;0,15999478076999227;0,5139951355927743;0,356322047409339;-0,6159211921021118;0,13708280070308765;-0,11060384833955737;0,3614955263894779;0,33132726827928816;-0,013385382562829213;-0,0809524791078253;-0,17871838138236598;0,1773592101343066;0,4109005592433202;0,25253114408740834;-0,3557110976128681;0,06053275984628048;0,12989460274060677;0,19087386183623936;0,28370592654239146;0,5446295313482984;-0,003340780916271315;0,20307719355335677;-0,1388782497166679;-0,3685121612642349;0,2279236909083816;-0,3060579376448514;0,12594440830577372;0,3947632453613659;-0,29990520691770217;-0,3268626882705084;0,35616961307339434;-0,11453359767967675;-0,02366299898051925;-0,4915091117880165;-0,04119195353077891;0,396390181391186;0,18481794241637597;-0,45075380421982186;0,1010635513427354;-0,4439417685746155;-0,5421832409452931;0,4032637990248814;-0,1732103510942092;0,3059844416854482;0,1532089239220033;0,37397632256588054;-0,031736887907029186;0,3173593053560298;-0,273676705995795;0,2067608345364645;0,5901363412771341;-0,32739207609846915;-0,19450543809108436;-0,3154523600394971;0,729822636459016;-0,003380769406833791;-0,4123149394790135;-0,6727950992256363;0,7840780664987977;0,1206206604838424;-0,36258301702123824;-0,2139811113372801;0,1934417238611651;-0,6200462675400216;-0,18786727733101988;-0,67077856984258;1,0464046792391237;0,5846934362138227;-0,0334337411952517;-0,3882999166397915;0,5275360296780035;-0,2632862352282512;-0,11883043975690785;0,5121508141386051;0,1303333882305091;-0,41402728831363744;0,28531384327800735;-0,3064490067233641;0,03646797377408547;0,21751527194085823;0,33597383053498125;0,15294172483215934;-0,09842068320160755;0,4221289434226402;-0,41992548355779985;0,4098231501133364;0,4037251120274886;-0,015257117634948318;0,12857756478250415;-0,22632779044706644;-0,2181204556827031;0,20812300255900795;-0,35823515349598534;0,014243312819363889;0,06570551363253392;0,47594364520727045;-0,490590162467312;-0,3933994408605699;-0,02820485711497835;0,3494877132557471;-0,3396766913581311;-0,3809484836860252;0,5681871133494203;-0,0965752082109146;-0,3120402964265075;-0,4741358199417293;-0,21186373362133032;-0,378067058799266;-0,09636583270347926;0,08937521814500651;-0,37244990044167015;0,6082892718565273;-0,03571973894301604;0,06975818852295726;-0,4735010264035833;-0,24561091050637077;-0,025138167278015128;-0,3051279049179505;-0,16053890516090152;-0,05968414484228604;-0,1645041715560315;-0,20997754973121563;0,4284286138856669;-0,15270669506512102;-0,19860745917699157;0,06253413220085467;-0,03902102954497778;0,22085600949914838;-0,3008517121561655;-0,16507538841794314;-0,2410003291320243;0,10555919408259319;-0,29777581206377557;-0,05372485615331217;-0,4121196623946046;-0,2853360197047757;-0,147929710955356;0,38376942149580084;0,2838273482474063;0,17480393244664638;-0,46259414094513185;-0,10835701489733579;0,17588840440790907;-0,35817984913223366;0,21319242658284018;0,055088759065423945;0,19688310692241562;-0,37212191514791354;-0,4440351790458618;-0,030464034361355134;0,42774717981109034;-0,418387550932649;-0,2983649984516577;-0,3892071644213529;0,29538463664083825;-0,05513280450085064;-0,36959874979875806;0,30883045482273236;-0,4587335792375926;0,2727618552638671;0,4550547084602575;-0,22559932292147253;-0,16303848297379142;0,10396309501592924;-0,147554044151832;0,1911423108188865;-0,08954785669360957;0,5104090590831508;0,30202760520386995;-0,6421953129338375;0,30047547765380267;0,4196391085330246;0,19889146697757143;-0,15364278873429;-0,1749594215408437;0,39434391411453135;0,19702841419252437;-0,120150955878703;-0,4954872826641423;-0,10028133669153745;-0,4350099264350859;0,20869634354507166;-0,3291312047941072;0,6908367174996283;0,39711129853886007;-0,31288785192813456;-0,4440475157274029;0,08029658626589103;0,15399247651239023;-0,3167901379053073;-0,30757600305746496;-0,08993649677087091;-0,516339213793457;0,4829405705402844;0,049587204418719326;-0,03985805309629916;-0,15562122454473024;0,21715938972832222;-0,3442761537096956;0,27029977159171015;-0,2211001992538009;-0,093054536661753;0,18838713080025735;0,16578160117182328;-0,10004797774376271;-0,5406030961099519;-0,7968161381044061;0,14894997931680454;0,3406959658955454;0,3756703639873671;-0,32582486106427555;-0,3634275784049898;0,27800012493325654;-0,12315228606592954;0,2681499182197318;-0,1735457864966174;-0,33514758158449964;-0,22204107671505802;0,1836109076935579;-0,44269719645949623;0,06291586690716758;-0,4082262493518679;0,40827661106796875;0,09498926053008722;0,46488347025889054;0,34075886007698014;-0,09349272254855195;-0,24257335588804982;-0,053517748073874646;-0,2890878813911721;0,0023864248064292284;-0,4750546969281438;0,0661358138327913;-0,14065484044675158;-0,49092517643130873;-0,2817491976993574;-0,022252752922372436;-0,2886251524961012;-0,3283692391070386;0,17665703036603658;0,657563133202986;0,011284715681386889;-0,22527309273670154;0,44637597747266455;-0,17485403803480162;-0,2477798843289225;-0,5062214164029035;-0,14484163035997694;0,33661472541665427;-0,6730779385270427;-0,19426543603758967;0,3354175480981721;0,30964268743270884;0,41240097152366034;-0,7222133374699419;-0,16296865311876577;-0,6521986519757638;-0,6630079232341706;-0,09968191635682155;0,43592491612536505;-0,32126705588187326;0,09436115152004856;-0,1923629308031782;-0,41719480890014515;-0,2341380300397388;0,1821078561684511;0,14519044289735608;-0,135331923470052;-0,09176113521219782;-0,11816588476488332;0,07837838634765015;0,3820525532600996;0,029808787207546282;0,2734603920408833;0,4033050671137298;0,02701411027021824;0,38672080136234627;-0,2673433966759885;0,5982644998297427;0,45660827339878907;0,45219308402908165;0,1638386638929956;0,16950167390456553;0,31514056939133417;0,2089031531511345;-0,49383959086793433;0,24209942010871766;-0,020524706969631535;-0,40062105735176423;0,42048176307073526;0,3089184857221893;0,21472954080630954;-0,3221876510935222;-0,2584229709892833;-0,22293782119292527;-0,40337584191421466;-0,3599065221546065;0,507537027045437;0,31174103807833636;-0,485757168144669;0,42798016570799485;-0,11979446978212979;-0,20919772952263502;0,005228117395577007;0,694967355691366;-0,35206243328567816;0,3245617098275922;0,00565213679828386;-0,05408198003942837;0,06060799877569347;-0,49866443620540624;-0,366301456147542;0,7566583340962443;0,004244914860923531;-0,022620537482783754;-0,7093502821644927;0,022337645256578696;0,17200551490036173;-0,33154537942939266;0,3499278829845176;0,08798624413578925;-0,09974340682277197;0,041336591045731376;-0,18450801789839713;-0,08906510349973201;-0,20971488249667014;-0,36748113115787456;0,6638093281404707;0,4976933248374552;-0,14933976568658455;-0,11211415303591632;-0,22930401153129465;-0,08465576274947616;0,1956793594197334;0,4569684331073352;0,5148119410695161;-0,5917993867430019;-0,8726924354961656;0,2681984672686275;0,36879461754912496;-0,287246402055406;-0,34486397363284876;-0,25649691153502996;-0,14623033667791221;-0,02810651722470496;0,12384921818387436;-0,4887643286006045;0,22521279604000694;-0,41842769375878736;-0,45517522139310496;0,3488940534501788;-0,4941223541523248;0,22975140664682378;-0,27756515331515114;0,20284698364114978;0,30543085686807736;0,24769332155189025;0,4156286471317233;-0,4692578590090005;0,0030384999250675964;-0,396904890454356;-0,012188461083567394;-0,4393007527331838;-0,4829006744029646;-0,13859490047644704;0,35794193019034015;0,13416997143449863;0,3986248025683935;-0,2794345511673892;-0,2558873864825822;-0,5541097644272546;0,4652898404642772;0,2950523573308369;0,11541921497345808;0,559779162799726;0,43691380412850334;-0,3065735480742068;-0,279274032992369;-0,13229211236565624;0,4733515971564337;-0,1445715915942108;0,015242196115280892;-0,04035165314002457;-0,16131059523399566;0,22669058889361346;0,5199335375043158;0,6694730475478388;0,6334754311371801;-0,23698435993008118;-0,24968090032432871;0,11524206447031776;0,3554873142571443;-0,25041402680757346;-0,3338538862035782;-0,5059866616960887;0,13690475895022172;-0,053030143262232286;0,45914884325818706;-0,2881663665282991;0,3360712023587934;-0,5959007435671818;-0,5240708859616608;-0,44519479626942776;0,21643583183637166;0,4590090166242776;0,1503000569217433;-0,43521010769670054;-0,4376379275244359;-0,1363444057550086;0,37974503570549245;-0,5159496770159776;-0,04492257964664996;-0,4220956763657434;-0,041606308824262944;0,15729095359251352;-0,46657040648485565;0,013131274827708875;0,180506261867428;-0,3381922988000968;-0,04504360404447551;-0,31339718028868757;0,013434900057288288;0,39322133324630193;-0,16993931222399142;-0,20170980514487882;0,19553082080088963;-0,16522067792957285;0,025698281764461872;-0,4737685285281136;-0,4578408622840988;0,3182741320882624;-0,6866905388895868;-0,11408070280440069;0,40776730080085805;-0,8395587794560532;-0,3757625721842961;0,3400246127718101;-0,3578625085629812;0,394400365691044;-0,6116661158038158;0,18630065660943126;-0,09215454041872506;0,5171700409455091;0,7138280257361487;-0,020740710558148426;0,3472847866720369;0,12685492314244848;0,3980402629670974;0,06223600474589554;-0,3979776782611513;-0,2266600425662487;-0,08459118628678453;-0,2667847304313715;0,1287270447629386;-0,2509745419531985;0,05345985166921737;0,28305340828413134;-0,13700578819487075;-0,6971057321637294;0,08963069759447051;-0,2333561103968367;0,0741183260619008;0,3182908089345574;-0,5758995011402746;0,48600801845279;0,42030784796860504;-0,019338842740267887;-0,3853423030322467;-0,2310309778391558;0,0962336269839115;0,4194550942462463;0,002374936787623358;-0,5785426769314677;-0,03393179984729969;-0,1933650979398902;-0,07891522187788064;-0,22319035593709496;-0,05507992338267019;0,29846154097401656;-0,13573863232960345;0,01701747192902172;-0,006796905522010223;-0,17502772258582439;-0,3294648853486707;-0,13467181924952665;0,2769871975101904;-0,058638221919207596;0,14312768550142696;0,5429997486324185;0,45244990461688395;-0,0974259454775908;0,39383661211400034;-0,06787751205081083;-0,2920241404777113;0,23700374211885594;0,36362435903306817;0,8432364783985501;-0,6839881593882134;-0,1545911226522618;-0,16713693770262372;0,34493375762290107;0,19608020532248685;-0,5822201031254298;0,35952495412722923;0,6265919336226385;0,06136498684740516;-0,4908156595578477;-0,3176016365797504;0,4222015897603826;0,00797499103630105;0,8847237406011508;-0,03606347722067301;0,01789788353460938;-0,4911222487281873;0,20792726648807797;0,6808008250361567;0,4304323100400542;0,16621120487547683;0,21641431809509834;0,1392435462090671;-0,17467905775122866;0,26196294020692623;-0,37095411803268585;0,18666964753423754;0,34923525385381576;-0,07221521367054684;-0,33845378314172253;-0,08512834570976106;-0,4999551704152409;-0,1509703664301925;-0,18889680337325693;-0,43181812649511103;0,3910447259363814;0,3102120714125512;-0,21030280963836384;-0,45522627344378097;0,30352179764814713;0,3654608723403412;-0,2856396156137899;-0,3009100509467302;-0,1196673651227467;0,054603222378331866;-0,13027390145907447;0,4089948132780068;-0,13502156680449182;-0,13282365922514727;0,2787611081243284;0,44629476593206496;0,07656975322194669;0,4828280056550666;-0,47960943639028597;0,09543482716374038;0,5617973908871231;-0,0020187998142840178;-0,006797575019387815;0,3160446605376438;0,3222743290691233;0,634786243977817;0,007849632711627738;0,21062949752556967;0,7527908062597886;-0,09772605000662449;0,16040435851021162;-0,4253916009128025;-0,03994465852632295;0,4178174759945141;0,22881688208701445;-0,5459952188592408;-0,3862588406037967;-0,24531610234586704;-0,08186461811349514;-0,35452296831222563;-0,29456819833101494;0,11209142568814272;-0,12082068868478084;-0,7179960037112572;0,5509131682761876;-0,2622194881682204;-0,9250422390288451;0,19820549077590613;-0,4726243050343646;-0,03606160059772544;-0,1872312933770268;-0,3983205776506254;0,6248446934521518;0,17769006731660614;-0,548743268724717;-0,465273127176374;0,19266429558100315;0,3642772290739095;0,01230471977466767;0,32206762804393446;0,1863425807182462;-0,5856626170076473;0,10964048844188781;-0,013202622691230136;-0,340158747426434;-0,06387194601037992;-0,25543925402930684;-0,3196637822647798;0,06137678734360462;0,3400141487885227;0,37333412947397543;0,0008769529557051084;0,4967875474428566;-0,4716419411974115;0,03568590009327812;0,21448639472794956;0,10606733062412863;-0,056080750472876625;0,4810459753014484;0,37535907353995396;-0,06858115619965152;-0,02572133459852344;0,21170968448262137;-0,1838992087477109;0,27025611363374613;-0,31349936793989597;-0,3132529685003359;0,49252500138982375;0,4181131633113614;-0,3202079619631169;-0,004905097807616393;0,14339590300171257;0,05117935650062486;0,3196672305489766;-0,2816756520229715;-0,2933088073134547;0,023782325060344462;0,15919410128765416;0,054291687642829475;-0,4342800957901692;-0,32711196072996934;-0,7072535510791681;-0,4456284376894862;-0,309130003196901;-0,04110887042626395;0,09902481269407515;-0,10638986850233623;0,15682360054173308;0,6469922274995495;-0,2311261384291314;0,29037966889728845;-0,16962802046258005;0,3234690698289585;0,3577223933475648;0,4202101103434108;0,6619793268519263;0,29788980238611334;0,22312188253419213;-0,16992433152321446;0,19993428025087126;0,18415070825031868;-0,22552732180071972;0,20212832605008085;-0,11649633136324594;-0,23838927172101984;0,1551996907792401;0,12509401563574998;0,13538211400152467;-0,4609842133608293;-0,4573306617863271;-0,2600371433826451;-0,1916045564911477;-0,5104020411059421;-0,24368382060604768;0,01142608791686464;0,12894870820673857;0,29652197069338165;-0,32491343292472796;-0,09317359660217435;-0,13935662452321798;-0,11881759465287622;0,39782241026151394;-0,10323223504750449;0,29471090080379636;-0,23258039128735475;-0,40258522049627915;-0,045997339914569106;-0,3363191205198265;0,11650865651125955;-0,19794528355301017;-0,18411311665011865;-0,3707979970137805;0,45715871923361046;-0,3740607446106462;0,400455154549768;0,43751482196685354;0,6525601730266472;0,31750110694660283;-0,20420969239541045;-0,018080114072643122;0,47426929395194517;0,5171614434082975;0,17526154815860365;0,2785415674686351;0,12413759351027044;0,2525960618249392;0,017666967930419542;-0,037758093593557494;-0,1859712891543847;0,5269757878543396;0,27039319762285874;0,31314982431941674;-0,18970006429331956;0,159802366922596;0,3664362868243429;-0,2704546576399126;0,25867416071301835;-0,0012967521946893618;-0,40932750375006605;-0,7671143957986374;-0,0940182860683189;0,06407729112587988;-0,3369975075849674;-0,043359366775630605;-0,3698372362400719;0,015475195454521242;0,17571042184395438;-0,5967207113340451;0,7605640681838135;0,11646117975207171;-0,06520030971144465;-0,0516849540207741;-0,21916997708530211;0,2932168650354435;0,23687754009287007;-0,4618738771620838;0,2429277262210716;0,246905036247831;0,015335120823991945;0,4553592391495917;0,2041597299198084;0,20038301835464437;0,39758122536539964;0,16912090533223392;-0,3297846539231997;0,4000541408828114;-0,14390367506581905;0,42447517857878825;-0,23166614659661142;-0,3548949367708531;-0,08861336618327806;-0,384926826211084;0,5547593574190471;-0,3344265791667984;-0,26201797528705334;0,30751106775582765;-0,035677278754490206;-0,18062885918807564;-0,525860414827063;-0,4860418120653472;0,32548965515632694;0,21513964661787488;0,01124586575730221;0,16687038965092385;-0,2669454855314342;0,14947379396413937;-0,09050513277707084;-0,3069693811611049;0,7645640003625556;-0,02511013361679576;-0,4809145976873192;-0,40093034518715864;0,43163756494260874;0,06292151656190059;0,2929602223486942;-0,09208094909843187;-0,3315364363788128;-0,5227545689894036;0,2598764430654272;-0,42299937713444996;-0,23915029191594492;-0,521918006689116;-0,49702544912461094;0,15506966678445397;0,7546999274384473;-0,4202938000773935;0,5035023608005439;0,34924354404778546;0,37271399392005133;-0,28447430653079864;0,4040795537649571;0,38636573706971955;-0,2028687759304689;0,10029538132551499;-0,26056313592572794;0,47980704028797044;-0,07635334676823045;-0,2878249874459147;-0,05516909990538132;-0,17006472526898292;-0,0374669330054303;0,0889868204134057;0,32921584430905215;-0,331749107123592;0,37715212332341325;0,4670391781458767;0,2873511089017086;0,04050526967035632;-0,0892778541761575;0,3031819871784553;-0,12112537897986775;-0,08384314863464509;-0,42718082815478337;-0,48069008426856025;-0,4716939274171137;-0,2554624162361707;0,4977006430277802;0,4969699858918206;0,013644328103415154;0,043676946359377876;-0,15467656522427076;0,21476629466131544;-0,26920363835757216;0,004244443657703473;0,8955377303388928;-0,2372046011163843;-0,006495803881604579;-0,324773698979929;0,10823580218284619;0,2755509642266838;0,053538033643452235;-0,11852666092108616;-0,37039660076437136;-0,02295002126350763;-0,48352372384406395;-0,3880637334623133;0,15651259626757877;-0,33956667168257587;-0,32353397544968937;0,3109503281221672;-0,5475165834318928;0,3379535882776815;-0,11200475319544055;0,3117657062020721;0,01282225221697773;-0,4016055615252027;0,2218840164237116;-0,029532380552691844;-0,5098425148663106;0,2769436009401673;-0,6601411181472213;0,3581757264573692;0,23295659483451706;0,25939151416225736;-0,2907072668858245;-0,27770689964797507;0,7477368472959369;0,6077219479543408;0,10023157411587012;0,37377516431388425;0,13062298926480045;-0,44600217098273137;-0,06601122414897476;-0,72983271962236;-0,005959816804660815;0,19545313518420043;0,34184539165153255;0,3281426815495722;-0,5103320003562032;0,2427258273233175;-0,31003351219847375;0,2670752731639035;0,21857644653397157;-0,4700865450272772;-0,14178428196551804;0,38995059111722913;0,034432697624764017;-0,265552386822804;0,5952359188631284;-0,016827212447223006;0,08377204440283295;0,4119788539555347;0,07114875895593967;-0,540599070125692;-0,3799947000168426;-0,41539769408987864;0,17482906642474752;0,08823486394786051;0,18110980665756007;0,3210759635539605;0,26359201417486244;-0,08055004878363868;0,3368858673123097;-0,3613745048344824;-0,532629990444491;-0,4655781332254129;0,3492830274796235;0,08969501413425163;-0,4179512194658927;0,38604235660191777;-0,3857764226049637;0,3056353106029557;0,08594534336249193;-0,2884496624124938;-0,6167772025872609;-0,4257518570014265;-0,44095422052360844;0,5945778477925711;0,06313504514278578;-0,3071363946520044;-0,07076723063292857;-0,3041469001670956;0,18434855788048918;0,17896497053726176;-0,29413584272317556;0,25349952497618966;0,04291940817292736;0,30535245579250714;0,36654351853273337;1,2306874352692503;0,8591053778928768;0,3674134360237073;0,8062154198953291;-0,3310118867617371;-0,08213272021903496;-0,20849858090609685;-0,34904538372883975;-0,5686788650703042;-0,29162197304206416;0,04623750569818614;-0,3823292006550433;-0,05045889753433762;0,2735439731509243;-0,1909126064310962;-0,10227331619097449;0,05463897521286149;0,18327437139892916;-0,0498482062672213;0,18777115620988136;0,4675959793188162;0,486687224327898;0,3941278512066234;0,3205104845309738;-0,5403745192479407;0,49398542101246706;-0,5789375545420404;-0,25077624122511255;-0,20646373712144353;-0,34067629510149744;-0,21996754081452152;-0,43855685304247605;0,17742067941624692;0,5284225895921563;-0,09056905251290479;-0,41596831908543525;-0,6222623226036047;-0,3059782430606082;-0,027990080314613804;0,3601212127472449;-0,5202304018690455;0,6217238272743213;0,6284863913702354;0,045758192034823085;-0,3142017634594878;0,46907844848887215;0,10651774470016397;-0,7403151169347798;0,27269911871104907;0,39273116439273625;0,25185916320442936;0,2819146130459798;-0,010182099678463334;0,06567179746798124;-0,2602549588534031;-0,7710834650534877;0,32904809068001084;-0,2063062158094936;-0,03503805560812465;0,04148292869275383;-0,11548874158320187;-0,4620796980103138;-0,2449717336022599;-0,787956005370425;0,029588998647440117;0,23450060163286487;0,08679565316080491;0,26754018638205196;-0,300159052634775;-0,0019380182691958274;0,1256895257807325;0,48787989125304837;-0,25480039488640044;-0,03698230316761687;0,43737032634176054;0,4221072959969803;0,14067870101605265;-0,4540381832841501;-0,00025865531825578755;0,11237360349201134;-0,10072586096328098;-0,048143867808739985;-0,13223874473661246;-0,39985866091310507;0,16282250286749497;0,20841986695644615;-0,15582469565924142;-0,5391766607380468;0,20665603497850513;0,2422876946904659;-0,37551912685276595;-0,2965355490312405;-0,30993061418574375;-0,041199404803033864;-0,29616235338406144;0,34124824565134937;-0,5314280078996357;0,42752558121449613;-0,4928862299780237;-0,08510321079377031;-0,11890904587946144;-0,010333741558727802;0,40614373865369674;0,08117995173264403;-0,18418407427483607;0,08070176543750761;-0,2866392087202232;0,3139854716037843;0,3666273429107929;-0,3735272026886259;0,24122699684281584;0,17067073794181764;0,16939579466804713;0,24609292020581144;0,4628954111482434;-0,024722499916339503;-0,4064492580910689;0,34108523128986074;-0,32482949941455963;0,5172768260675227;-0,5722199639649198;0,29978991199345034;0,33834954364565517;0,440987842214952;0,4578124685854242;-0,22130622088442922;-0,02468383270371374;0,6251557492188539;-0,6017523182974467;0,10359136790321001;-0,2653474900086912;-0,2148573563237765;0,36681025314997906;-0,3512828870611248;0,31867259571667383;0,2756437884671401;-0,2247722591077364;-0,2031113360984864;-0,3808546606228174;-0,0718532753010688;-0,46845839333404987;-0,17799444254667934;-0,3721246000118366;-0,4617994194951148;0,1460519634510578;-0,006315561734276146;0,008697251191118593;0,29593950078849157;-0,05904633587506082;0,14800933698411728;-0,05694572126537931;0,37314836161814186;-0,19588479105941176;-0,062149786006347366;-0,15073988858337375;-0,28364336714032123;-0,25269766067236016;0,039457823157328736;0,4439159554324627;0,5405618692551754;0,07257881950861475;-0,1717618727160308;-0,44257211756628867;-0,4615179538410654;0,4947649533817697;0,039664366834479464;-0,26114673785705983;-0,0642406075071356;0,504341447817617;0,8134121822902894;-0,8512988185613364;-0,5752617882378452;-0,5536107253212249;0,33377654034038684;-0,20352342605212176;0,3856522172826047;-0,02115407173242656;0,1490052474683609;0,09222206163245307;0,46238700092880375;0,1296376856382537;0,11457866165760322;0,09430673268223493;0,46323441036209984;0,5166174534955887;0,22711394162935925;-0,23363835350866677;0,8132754154881189;0,34473932874498375;-0,2423006079757832;-0,07881638361650771;-0,24929692017319388;0,12730394103807852;-0,5972871450526847;0,3117379690985327;-0,15388655897839243;-0,22072765888896476;0,3794470576352246;0,36704364096975645;0,04896858217083732;0,4970300885581541;-0,0270677822673334;0,4394255334266029;-0,11593789184431968;-0,04486941635135756;-0,4791813490318866;0,015805005677516786;-0,0636630496410017;0,21276526305204072;0,2416935422636565;0,027467546436794728;0,48617406619484776;-0,32225884025796697;-0,409746513309848;0,31075079674016093;0,24369404925094704;-0,20885847456817933;0,42907659351675576;0,2691618573686597;-0,0031048401474785075;-0,27029037354617286;0,08855849159418074;-0,11247048821679931;0,3227351385686426;-0,08178465373637042;0,2761448394956307;0,0248836516155108;0,16747167374841512;-0,6408256718964896;0,5015101947033431;0,009554893462620801;0,31268900319930243;0,19333778262353626;-0,3857389388740646;0,6474165422023465;0,3299358288567426;-0,5213478289766591;0,3233139946820435;0,26490085254887846;-0,12986176531820975;0,5554574491723248;-0,6273651553577877;0,25980288950609287;-0,4111883005448245;0,1892733232223168;-0,2098155198102997;0,45460755751779586;0,3946715823512651;0,37106655494712326;0,4955877580593367;0,10240625838624477;-0,03839684722614232;0,17420449485095327;-0,027199107514922723;-0,16103053836495843;0,6431206424766104;0,4497532479761334;0,3711280539968754;0,18527579830365792;0,31740214101117714;-0,41447727035936804;0,3519336924179305;-0,10750045224185628;-0,2532463950002366;-0,12351439069432572;-0,5202983787945548;0,3610707208081973;0,047641436817519096;-0,3571746634572311;-0,2860087033108026;-0,20577430684570833;0,30133381367694295;0,11595825254539896;-0,30868784914899694;-0,432547945773011;0,36947684865988756;-0,03748407608458415;-0,36763204749659945;-0,15765900250686662;-0,048481485167796705;0,7223532260806981;0,7218102017342509;-0,3564018640772397;-0,05146037473763391;0,38299591319235626;0,33026487979597546;-0,08900826639896599;0,4223392721295039;0,6394280580204186;-0,2608800416674605;-1,340568481819641;-0,3573697913340054;-0,3119784637276609;-0,39823407593186794;0,1223387999100164;0,4798137868027732;-0,0027956697351913225;0,397341560550783;0,9727671034248061;-0,24934676177861892;-0,0808059035691276;0,435276958432195;-0,32015824494946893;-0,23849251257083814;-0,5892224345642884;0,12842779314114536;-0,43605775853432055;-0,139796292911524;0,35402240721800776;0,39418236220308456;-0,149803411333399;-0,3548330550888766;0,4043830200376684;-0,2967490583579282;-0,3613673413496331;0,175100658957392;-0,20017851569048176;0,3247555294725066;-0,32372178377479804;0,16360289592274574;-0,1702778928558221;0,4881894520332512;-0,15992989825305948;0,3334884608863159;0,12078383236543366;-0,03039448010343324;0,12516152069777695;0,144468522524193;-0,2430880278897282;-0,2366920738515545;0,3845019451842836;-0,10295225679890709;-0,17677824156249522;-0,05109235709319844;-0,102453754184545;0,11150473876316283;-0,047160615792486586;0,44572627895437383;0,21655757744543683;0,27137229058443424;0,00443487290590989;0,43426279761966974;0,07650326074330216;0,42267202705580603;0,06240240794586443;0,011805707000669362;0,43298050578928293;-0,06213657880797415;0,217221923661135;-0,09873736340228824;0,3641500764165979;0,4102998417847635;-0,48742936679460847;0,6683258269851764;-0,10887744614304762;-0,26390642366705863;0,08548559104244768;0,14581050377269938;-0,37261965453839485;0,13210440120225697;-0,02962340870433399;-0,6161827063742469;-0,5727404281472372;0,5282526708919811;0,33145794573214027;-0,3942675253491138;0,02556674181489378;-0,12033276952895038;-0,27746284053366155;-0,06684379392663446;0,560259699731849;0,7350911781507;0,14354592092929533;-0,4574737459393615;-0,5005138770875707;0,06715388699576494;0,33993151916217146;0,46943698687718327;-0,298155186791842;-0,18608602131192653;-0,34258095605987454;-0,14577967656784002;-0,18874513622978406;0,05838775794135418;-0,0726040813217282;0,272138085204545;-0,48026670200956767;-0,5320621359560226;-0,4263330542845545;0,2267173163750897;-0,03578215243460911;-0,40987124069892883;0,34607469211073516;0,3251285957831606;-0,26866888787933446;-0,08957874024383644;0,06842185311277472;-0,4633194828490136;-0,11280770742401637;0,4241704377841923;0,5097735522307735;0,3716050908161819;0,30383648427287197;0,008618219651380585;-0,42434485426868074;-0,03816515117231337;-0,40515180826499964;0,5140341665499304;0,6249012677368797;0,7773751578282935;1,1015046020758554;0,40208275155246626;-0,33552421482050593;-0,3269196712019682;0,1924153168684161;0,27767903194053023;0,21566430376874784;0,5551419639395496;0,14100540011538376;0,037493546731433916;0,19139975000406476;0,419273918961755;-0,34175545091796156;-0,02098969064189906;-0,08823155149117146;0,08037140931023282;-0,2721229072424257;0,16944896198549228;0,4738604318093217;0,258268109498817;-0,12358479223980265;0,1037947047101634;0,011124527499101347;0,23729646259526777;-0,559941183622237;-0,16806202144602483;0,3595986304072324;-0,4946506721547685;0,23927380198259526;0,4929138189111273;0,8602739954732939;0,17927550122003902;-0,010443332222657906;0,11921064405574147;0,6400503845136972;0,47052533016550374;-0,11057904545691462;0,1957574083921217;0,2612169680252847;0,3523212675207263;0,7752954677782915;0,678440099579466;0,5110447501350537;-0,11725387494830754;0,3479186395150603;0,1751572656318801;-0,2824530497799608;-0,08962109076913513;0,28556021768568846;0,23439181051444857;0,491395597704451;-0,16461299519447498;-0,25183663455538086;0,46336762765731593;-0,3667128362845002;-0,2653229168309555;-0,05755930789461267;0,017356003061702114;-0,14234146652440305;-0,12463382297563882;0,22163540437463977;0,22224318439121601;-0,3150092535739337;-0,014334269380578905;0,33342627241515826;-0,37738914741346674;0,1688350572157873;0,47322501102857867;0,25810536883621693;0,1584433917210244;-0,06411880719203315;-0,34118274703046925;-0,16810182557222433;0,39402544450481175;0,025677756214182564;0,07580283796780135;-0,14170466552830605;-0,08350925996822216;0,1902570125068102;0,1734966009184215;0,5721790427170967;0,046973201605257364;0,3964720323814191;0,2576578146684073;-0,1212251078237388;0,36450257119606116;0,14735902162734454;-0,0827014168208212;-0,38359755222556946;0,06622503640096658;0,12637097410600037;0,1590444867216948;0,3631711893587345;-0,11209374672710422;0,20750880832362723;-0,028641921902511948;-0,41248259517544084;-0,17368937590208677;-0,00506212550639656;0,3529609401841406;0,10028450896467712;0,4389092927111872;0,8220242353168524;-0,26516136732186113;-0,5018478512735268;-0,2948790835509183;0,4346751191675259;-0,06238456124386639;0,43238696157000944;-0,10737274669678391;0,04994506947563862;-0,6544716722603307;-0,35246926264512546;-0,4061611238175179;-0,1037756675676132;0,33384922607149353;-0,15553719412839115;0,4913991656045784;-0,29312696883729294;-0,29756585936241153;0,45564779526700716;0,1961332826791737;-0,0002841332739413897;-0,06132259649227288;0,3418856438022591;0,4455155902536236;-0,13870554017927267;-0,19122241026207737;0,1219992112780401;0,2714279720372076;0,06936800389307002;-0,2089700307461927;0,180970830807736;-0,30307668225858636;-0,5386433797600626;-0,248516623512475;-0,31491255090555187;0,19445005707224922;0,3448895690780275;-0,05752787287819735;0,017282651011260752;-0,1076746850348796;0,14580291652550856;0,27121272352657005;0,6798582321885281;0,026452149984636027;-0,2289553258907875;-0,2531357961617004;-0,2992045283760896;-0,12006969260792699;-0,9414243651538201;0,6855900014904045;-0,6395637988225671;-0,5077501507073268;-0,029291718142810976;0,2605141966553021;-0,3311311682873463;-0,2309625033429896;0,7565103192744442;-0,5827269479962024;0,010588937873092744;-0,36132346451367026;-0,22004176342979861;-0,2601061352063834;-0,21420838180342477;-0,18055515226028587;-0,2204419142503694;0,41368210631208174;0,6574073074440246;-0,8982479617611885;-0,06206663249818331;0,18787571073536782;-0,29616905021196877;0,3147353277090966;0,1525596196927854;-0,3504726550451904;-0,09086589237366825;-0,14760023210950476;0,2869369887191836;-0,12510114078624907;0,05094216903747857;0,4544878077159105;0,21771335074769496;0,1947890182360932;0,4198641775692648;0,2332046027633268;0,3208976643012976;-0,14768681760740224;0,46385851882061657;-0,4512819313143099;-0,11246979318117858;0,03910753931299808;-0,16756396107266525;0,35158128394605254;-0,30717329936509796;0,3463202759000383;0,02268205476518168;0,3666037898030435;0,5170755643368493;-0,02960822675349177;-0,7345624679357738;-0,3492550041783519;-0,14696547540110586;-0,21845963548178124;0,21420399881261162;0,06217599860807048;-0,4277746848523604;0,666200451676844;0,28475415374864554;-0,5247221335455909;-0,11688262781892124;0,08551423661437126;-0,15841541281376348;-0,1628857096865535;0,2316479853736349;-0,06066702884486029;-0,22306391891897243;0,14473881239515038;0,0662026905382206;-0,021915129628217882;-0,30480212535145534;-0,39677272475569647;-0,5652289061450585;0,06819101709389418;-0,3340297515659847;0,48762974508724627;-0,28395733764270514;0,3451104709827008;-0,020772487430694757;0,3525547597202442;-0,0016448936804352536;0,28865931275757883;0,18347463678096437;0,20175461397767622;-0,4826421211900628;0,14490390990666444;0,5162795870964262;0,25263880407996175;0,004123461872035327;-0,2611137692180236;-0,06876497855364576;0,35097547471239987;-0,12294727550783317;0,21934808901184943;0,17420357956996219;0,2869198359541503;0,3072226966014373;-0,20944950169811646;0,46499956072052906;-0,07756282511262841;-0,29988127502376927;-0,3859285849344709;0,39025764912088134;0,20096526970190298;-0,5490737251752267;-0,2786589392872853;-0,22705368277999236;0,1536881607890785;-0,343443079585815;0,05476413612503151;-0,5254533585165647;-0,48915417237157566;-0,2864223258117959;0,5268320187460719;0,6779126714157312;0,033824953071523244;-0,32394164867392705;0,43179682802900654;0,4236827926018753;0,8966437097688802;1,0739147247869036;0,11595718814999036;-0,2236820844923644;0,3687291555918643;-0,11133635526747962;0,3061385748006968;-0,40289265802043145;-0,29586715643942424;-0,20103537374956085;-0,33530642171675706;0,27153982147564076;0,5900184372539766;-0,10464829575653768;-0,24875795131116724;0,22677665766849006;-0,18903849672916806;-0,017574469061206525;0,1809466305435032;-0,2557207959252431;-0,357380095102574;-0,030861927048987672;0,25036490540368794;-0,10551166785272537;0,5463264227893585;-0,24530614974447135;-0,2980241280813178;-0,2866607649171525;-0,12689106931194605;-0,34569461036758947;0,4033019811102397;-0,3548570177726735;0,3192467435304555;0,27643958473013375;-0,013569380477218937;0,9290560765820901;-0,14846941778682937;-0,2761092747198024;-0,13084064880454715;-0,16373195565133344;0,23373515199780567;-0,2507524361865634;-0,22718063137256417;-0,19288913201704175;-0,17283136010211125;-0,004826344865003838;0,12380852008880942;0,3180374916368196;-0,5358163589638616;-0,3322286886090644;-0,026017046225438933;-0,2139753905718137;-0,15530262285519733;-0,16962716009964235;-0,18337366856713586;0,33918883600082644;0,21373196703980551;-0,20471548933366077;0,268106363486792;0,030508185166864394;0,2834691577798327;-0,11818925290446626;-0,46848792474305523;-0,08920500896189462;0,24287308260340285;0,07904648207840341;0,6137140421042122;0,4725109636404713;0,19289158063355372;0,3622375181619773;-0,4244261233281824;-0,19739424030237382;0,482799490171831;-0,08181343845743584;-0,5976782751456337;0,5847375156710787;0,31547752495304;-0,7277448142089454;-0,10191949758012919;0,409634904339214;0,49744300304035877;0,001959198524762705;0,37512974135756777;0,14608077657700166;-0,24665750925200264;-0,6522049537236234;0,2681302349617325;0,2075085781115306;0,12271638706652821;-0,42310304447430214;-0,022338745037140905;-0,22109711467083587;0,2494986640550503;-0,2425232499080521;0,2813585646877224;0,3913043582655458;0,30983099061939595;0,10767491140497636;-0,4550305386532858;0,14192173652622245;-0,17760191616163584;-0,1072523875793435;0,1244796657463205;-0,481734453624348;0,3823035743038232;-0,08288423879073427;0,20050280417354177;-0,02478314169671576;0,39346592447732187;-0,03801573184187163;0,024885819293745424;-0,16379903229479378;-0,3383170561560093;0,6189288501468866;-0,49866827312365786;0,7543952724887415;-0,23712643704326605;-0,28545738302631835;-0,024892530829239923;-0,07122358668461291;-0,0865526257051328;0,14215209682976898;0,3996271325266805;0,2041593984067671;0,11204278784408911;-0,8668028561707432;0,49226509446080463;0,2424854098288542;-1,3160536611393623;-0,1363787285396957;0,36609696137142744;-0,5619610982399142;-0,429917701855535;-0,08270095126309397;0,12038493970345275;-0,625154715838175;0,8026344363408845;0,860625710887533;-0,4405751163335525;-0,2081712504063223;0,06935688052101571;-0,0032493184924954465;0,25794889780060215;0,020257631806681897;0,6050119426103124;0,02613161328075174;-0,4169783835256236;0,2646675085466518;-0,05171732187391228;0,6945914847959374;0,07492373094380371;0,36157770001871115;-0,2503381062218818;0,6113932137201729;0,15877492334984125;-0,4470632691685458;0,18216363536550564;-0,43549855134130117;-0,38615358422518625;0,42449626132411744;-0,061663144931691206;-0,3319850510454365;-0,31875310898996734;-0,26298848777255485;-0,33926229096207333;-0,22421144853141045;-0,21181560106374095;-0,10057831611984043;0,42121616442707455;0,008772699388450954;0,17294531712692932;-0,18433417688567413;0,17209664172243433;-0,0398933761844179;-0,43816648314895995;-0,09940375654228913;0,6084235901728139;-0,06993040960465878;0,0364110183267351;-0,2832753387856623;0,07265373585104198;-0,28696664021149376;0,32564161241683853;0,4709215679947618;-0,27864877287213813;0,5660132095597962;0,8470309827389573;0,967751624193796;-0,1706549478098707;-0,07080588124647899;-0,15199982958283093;0,13340020213685788;0,13154253658191625;-0,9315120585052609;-0,9175969573100229;0,3835963036519566;0,02828972506097554;-0,290919605384878;-0,1583898627409922;0,2743093673254533;-0,5944621335513368;-0,647484084585274;-0,2766413038076953;-0,39848133839109506;-0,43641071870289183;0,31287917881813926;0,46251306713824764;-0,3970189392292485;-0,2953868896059822;0,199718229958299;-0,