0,058854970917254605;-0,13837195820749806;-0,14450820930346608;0,4879632632093496;0,14444688806766184;-0,1567950136610973;-0,475104995668621;-0,28875474486035785;0,2501996054754835;0,1336896062598381;-0,031065171008720978;0,5695444596195971;0,10090806678949034;0,041909626599528314;-0,507472373496287;0,2546072166724969;0,14935554372049398;0,22670289560115664;0,48655283941055555;0,5614325330796288;0,0017441654334906615;-0,3225938017725266;0,32559679925641827;0,7015628199938052;0,4058803711049592;-0,02358537751157133;-0,0764874591242892;-0,0007240397955117169;0,5245805529445083;0,29114601611161395;-0,18542116579192688;-0,10764727284569911;-0,1575295891891712;0,1569366425619344;-0,6004837278150259;0,5594188792426185;1,4629096203555365;0,5596176429023754;-0,01162708029783541;-0,833810008231251;0,27074828806401563;0,14702751278536744;-0,42897959668312174;-0,7161474252084288;-0,17341472363918126;0,04739411865791143;0,2844954029432926;0,1601183168316476;0,13831818428417803;0,08282821531023396;0,7260146892189127;-0,03182125274362564;0,30862294316753763;0,3841249951950153;0,23367315445152503;0,3632836593814078;0,39172840933952136;0,06620090137403492;0,13375435248046005;0,54028852523377;0,43701494658143514;0,8413602322504792;-0,32400679765954343;-0,4514118631385791;-0,23032355548458455;0,31365520738386793;-0,2909123552865434;-0,13847725344758216;0,4438000548083265;-0,027102557393493154;-0,26950476125454376;0,09987284318765048;-0,4020684188805164;0,18838119112886587;0,21880317918623993;0,1243961256195865;0,4500746527760236;-0,06799134347169501;-0,23836896224676976;-0,05429038301592906;0,17148775916850664;0,07770659181974304;0,4746941078897921;0,7724781772292886;-0,6191284460671103;0,1481125944816103;0,8168841959943507;-0,1952968105599231;-0,09515462667085665;0,39110123210910447;0,08123996883204002;-0,36339126797609694;0,21909538489478717;0,3146316527402742;0,18452860782438388;-0,40684623194982295;-0,368616385505482;-0,1539023930871861;0,23675534808305856;-0,4052271546445522;-0,3891972302089678;0,41248646329370753;-0,8607744873703546;-0,33527793342313605;-0,39951989750405076;-0,3205888360584445;-0,7046152888638428;-0,7012314053958055;0,22956184590684403;0,17098018418908753;0,3300139724756801;0,8751635783091686;-0,30809658064050227;0,384946498668681;-0,2348647258005972;0,22871989473881169;-0,4967343370127443;0,07594345883177565;-0,3731771107731369;0,425246506974602;0,061701490058096886;0,3610985854300941;-0,4920398201884161;0,31495421184202615;0,3985243229114067;-0,2700607168416295;-0,3450205265423813;0,45688431819258324;-0,2568203873259267;0,4364549091149139;0,4097732227921776;-0,0866734984024206;-0,36867950291323165;-0,3331601413547931;-0,030108420019218804;0,27142037493581006;-0,17929093562840406;0,030672752784405576;0,1547934315461497;0,4321172167932944;0,35094257728115913;0,314902913200715;-0,34891357021538183;-0,10754978828743555;0,3444199726289233;-0,4934294234944818;0,006170149783448493;0,5249065876470255;0,6222223338024181;0,31159219352631146;0,02544446897999101;-0,4831920690011612;0,2726174778596023;0,2021706543889064;-0,14119341967361704;-0,6751280226965781;-0,24294329883822083;0,23048207231625306;-0,5425550062603648;-0,9230130738591288;-0,12539243745628723;0,0673615130592938;-0,6112440320237753;-0,009153598390522691;0,7075243943224734;0,12872291424419002;-0,7190598991292692;-0,09192622637821729;-0,05816444428709953;0,7880421075220537;0,250465711606421;0,8071382205783745;1,0563722386188243;0,8593096577714877;-0,24581835748799885;0,7882054517995367;-0,4855174426843982;0,1724729615060994;0,6267100396713262;0,015264702168600906;0,5730960501492998;0,33161586862884357;0,7899723524228611;0,25603321720381106;0,2364600916496705;0,16093425735047673;-0,4995706260366596;-0,6862147332894575;-0,2810357657234928;-0,09044830241829882;-0,20494448754196204;-0,36505217484817726;-0,08148293550392088;-0,36105800996348253;0,29132441094167144;0,37033051425725305;-0,4654154350957727;0,17399063113432697;0,2516184277828961;-0,03349363905045503;-0,48686010727288437;-0,34981385670708187;-0,173622502270057;0,035688895346521636;0,28377240551267363;-0,3300436018286511;0,09510295046877952;-0,20807521555373826;0,24721812036084456;0,16099297767144816;-0,10705748478237553;0,3149860440018206;-0,5914080084328566;0,09591740547640859;0,6811108392687789;-0,031880530237234465;0,3642263254743207;0,14342967435709766;0,33353536769563474;0,6712429783978165;-0,2715937231544374;1,0942214694613521;0,1720993589307398;-0,9172151484949808;0,3588548775989941;0,08725051831590164;0,7680726682151692;0,8127905688505768;-0,42083451763832863;0,8891815081240935;0,11321069036368095;-0,08311228500533722;-0,1621386912999798;0,2577710692061899;0,03379679929473426;-0,07836431930463994;0,36812929239665254;0,7761718791156728;-0,035907232115235624;-0,05504523036097606;-0,07921628042003341;-0,25252206852035924;-0,9701788130020985;-0,550877145639447;0,8417650039519385;0,28040520707970007;-0,09607453921116932;-0,27820584629998896;0,2606686679355717;0,4334830304778193;-0,19752301344989903;-0,3395536262858461;0,14196244644419334;0,01855139349650752;-0,18039483810408086;0,10503067611399376;-0,21609502536278677;0,21956681468134331;0,06505921336420703;-0,3307919689253076;0,24196297595401872;0,041256832045540724;0,11538240581739476;0,2008553887300473;-0,024842425240379946;0,05625896273627658;0,5002666758914283;0,6322021310058188;0,5325064323918584;0,2378401357975975;-0,3765891686054803;0,17811978924873528;-0,04981012148195993;-0,0622551028833427;-0,5616910332460593;0,2376231575738819;0,9089795538232923;0,3227092402961223;-0,4203334884694937;0,0015457553355139955;-0,10725183338336386;-0,09308552484164916;0,31455539018559175;0,11394379790399009;0,011408634214150018;0,14824009098034616;0,7231974996082767;0,4020932962664688;0,3311693339810568;-0,00678750753348765;-0,18552485442110653;0,6446141930752091;0,9716013661212992;0,10747341568522117;-0,32449967583521533;0,2240711862978354;-0,5079955172939117;-0,02371864109533466;-0,061670822826700354;1,3171219284711047;0,08075590419534266;0,20350640206035212;-0,05957198469539494;-0,45008336233630497;0,1357323681941602;0,24261481872957263;0,3027734722396325;0,09015831823131207;0,30170908565216836;0,1354531632848794;-0,23534863510136445;-0,39741222400310866;-0,4224443219848203;0,12781468478400043;-0,24589077564296832;-0,07864312252781608;0,38675625598299224;0,2076355955058659;0,6216985990647127;0,24576044850756779;-0,3320439084098688;-0,1648896524510046;0,25209199107364105;-0,11545251157128442;-0,37775188152854394;-0,4941352089542399;0,3870931622111685;0,32383715638786914;0,4278546695651974;-0,24611353270885847;0,17948601306303505;-0,09528764009711994;-0,14932771233012215;0,13352468069031218;0,17965634808744402;0,11178666756301625;-0,08371952799007018;-0,03838609759789435;-0,3412540086730156;-0,7280091799126714;0,19910289151933078;0,8411304244499399;0,10446862623496596;0,379717456278553;-0,3359521053071426;-0,2918446871433468;-0,9338127930462302;-0,8773560357388831;0,9201564620968149;-0,05216360890031273;-0,5367728336545584;-0,26615178143565066;0,24453078074561163;0,3417346716094601;-0,2302713388846003;0,9304433457489576;0,027609669750689243;-0,1266957359819409;-0,010576515757647004;-0,6328780547953552;0,3795293552957745;0,0504289317043721;-0,4241840510849095;-0,5128671983467611;-0,5967102441553332;0,4387946573006913;0,11037702710613814;-0,46387670136687637;-0,20685949310305393;0,4454818346842683;0,3885015575218168;0,13978428388664924;0,10882764490164606;0,3802544333114168;-0,06593310696028586;0,04237732629727646;-0,0531700213065749;-0,25922358618100044;0,5089580721523608;0,4188922578176827;-0,5481954016262257;-0,6011039668531056;0,16635918962719828;0,4645964535893796;-0,3276769328383383;-0,4481823426926513;0,25577757390517675;0,07287537979736923;0,23474202750799328;0,336148912700413;-0,2402616571473276;-0,30015209108018104;-0,36598162846693466;0,19379494004919826;-0,15626553310632013;-0,6057328005932404;-0,13783282212817383;-0,5207221080231912;-0,21829221511402455;0,32335361791966744;0,2858055487369885;-0,15828901683913263;0,5188893178873886;-0,45016436969798185;-0,3014821439993912;-0,01130231277092407;-0,017574801729973492;-0,10095872705310409;-0,3478404689752739;0,8186278918928412;-0,4332505934710895;-0,8908399066459941;0,7167098450120133;0,7128224326082775;-0,6292387278007472;-0,6177584611655479;0,017693448257969157;0,01821524783717109;-0,8869132973258471;0,3777787450659625;0,7035061300998658;-0,07147682816366337;0,7274350930673403;0,3224433632729107;0,4195974589392974;-0,10920906371055351;0,475806828875508;0,236278848860431;0,6249074787664693;0,24316025463262686;0,21375147188916216;-0,06004392165067494;-0,4664812568164661;-0,19115435413067464;0,3237959828661835;-0,035596463082228816;0,015093624511824019;-0,50153718306386;-0,13286799942655594;-0,15950780417648466;0,4491181551310459;0,4792572869025322;0,7661222762300197;0,013255608764237578;0,11594101997186156;0,07430154983954068;-0,3745519619320642;0,4428143885557338;-0,1323402698274638;0,25978879044527686;-0,4149598587416063;0,14472080700888285;0,1185044361737822;-0,1637907361420379;-0,42136142914578434;0,14223048471946273;0,116906838171175;0,21653484651617708;-0,008178237652126734;-0,05860601861519583;-0,2958811474251888;-0,8210221747346573;-0,052782238946332834;0,18293509284853446;-0,06314051970396803;0,3193450978772927;-0,17801394200917595;0,09912856466636791;0,6790378945681618;0,6109927354099199;-0,043053027864864896;0,5751858709386783;0,04946662205824696;0,49102973355915897;0,6431323725063709;0,17882112745904644;0,5774575152621103;0,9363069005536592;0,6856485245370696;0,31419928032616845;-0,1749244421400465;0,08642699143385281;-0,7620177567436757;0,05280716663596127;-0,5993831650451545;0,23824962126498983;-0,0007748917725550863;0,24381161474762375;0,2287353654314681;-0,0262650319965017;0,6627728314595035;-0,014066856053125335;0,07045298127161359;0,43087343856760507;-0,3143233195996762;-0,5100564432603244;-0,23089724290839395;-0,4669296638134113;0,10474664518287946;0,23915622307040232;-0,07070292686939847;-1,008368443894816;-0,20370800057660488;0,14460897416746654;0,08271702401018287;0,1807978843898929;0,3219104878530534;1,4645347271674907;0,31067026100070744;0,924046927133717;0,22100259521840984;0,2545985096623565;0,42551187628980647;0,39494040677387204;0,4469976421063678;-0,13638766287686768;-0,4079300425024716;0,11439451344250799;0,2877034247960413;0,43899205592905943;0,06087851107032717;-0,28208689789393815;-0,5442031601474512;-0,34124269406494406;0,5300587347571735;0,18064414454254135;-0,07582845399042591;0,011770131412258942;-0,3449146204213563;-0,7123227265166512;-0,19411750135486525;0,5229626972821249;0,7102535036249762;0,2939903679623996;0,03096820908830797;0,5612817173102148;0,16703986583776947;-0,29119950389775595;1,058332209549401;0,6237283557372553;0,29970313415165456;-0,5304451068766333;-0,15575858849064933;0,620273064268577;-0,04310650068611134;-0,3054948086867435;-0,6487815313220425;0,31670616541494034;-0,2449976151606888;-0,41524564464327246;-0,31782477351228305;-0,41913266519450765;-0,04522310274269004;-0,03232236968369352;0,15952893269499271;-0,5077702963281904;-1,160818745341279;0,5857510354136991;0,2842575929252537;0,29752169479875284;-0,15203279176251383;0,3424254421898222;1,1403776923505446;0,6889855879772285;0,7791034578432747;0,33135920797419544;0,16385272370998927;0,18289985026564853;-0,3793612259870324;-0,0727262689565771;-0,10631709956654928;0,30312086098100866;0,5532328001103445;0,033475238995416906;0,25796617099681557;-0,13378087289436394;0,13851651161212986;0,3918549483809929;0,09702601698630292;0,4671415402574797;-0,44716499162191;-0,46543866618675195;0,12457491302860851;0,05259391808782402;0,22808906421289415;0,35728618850380184;0,6120200043332442;-0,07061670310297168;-0,1207842242730379;-0,24963826183349314;0,1746933906660827;0,2608258093812259;-0,21435077421965565;0,2749857974241144;0,5012800478962626;0,3323773937499313;0,48470137773711375;-0,4271347073967137;-0,5538284475385642;-0,5153604482085286;0,24631263564046882;0,4655037674650009;-0,2755388473042855;-0,21087050305602312;0,14745723736623276;-0,24035161886325399;-0,26899296663118566;-0,41225466207715256;-0,4824222983351566;-0,3673413928237534;0,9733456731435136;-0,06777533455138807;-0,27174863415530304;0,37703276889919696;0,18640324447561324;0,20923249369687585;0,47146556113129096;0,1369772025381567;-0,15311799729610465;0,48563490904873147;-0,0447037158383584;-0,3734654445911537;1,0844535595407474;-0,07388398342534101;0,1850071236729372;-0,33198465860314924;-0,31238251108126186;0,08167337039551156;-0,8352765611277065;0,09982998043276778;0,651462181809669;-0,17848075347230866;-0,3055151488107496;-0,1518864640328469;-0,28573163785351685;-0,5109277831746231;0,050574617070040524;0,10715242369437124;0,1986678110569908;-0,20966176654200724;0,34899705403403175;-0,09107630561475485;0,14068953249159502;-0,09631999824149905;0,1584823324999538;0,41978386554187624;-0,06257877221905561;0,047884576927700886;0,47830820300846516;-0,09768365458367248;-0,3657906404303705;0,31156839752902293;0,07184063771167053;0,07921151297836287;0,5976098723135385;-0,06725412661560878;-0,48787715678642146;-0,3405067768403923;-0,22262836084973306;-0,212801167122873;-0,35561051243969305;-1,178253897128029;-0,6678430569352463;-0,6801297359678038;0,03912279823732076;0,007188864296698825;0,1076828675242268;0,7251953322245944;0,1645107598185714;-0,7176117058305747;-0,20446351107702318;0,40965104773734745;-0,2432472251373389;-0,4064544470013016;0,36906583590024256;0,4791933411293544;0,5439166205306553;0,2930686757294542;0,7117172429547433;0,7235878493886743;-0,24156196940541141;-0,5154127105402874;0,2610782961683158;0,22234137925990258;0,6825704636752516;0,7862387174834552;0,6774256367069152;0,4826724654114392;0,3528798205571326;-0,6445287253114396;-0,24516388128522323;-0,04628604413412235;0,5915806556341324;-0,2978833111049733;-0,5175388390904864;0,45943546407781255;-0,35509959831787125;0,09679910293854536;0,3816374627455835;-0,2750197839676974;-0,8379252439693576;-0,16760978683569416;-0,31433368143278106;-0,13077445238279337;0,3434103705177628;0,41304734702525586;0,3222729343455941;-0,04781863756086702;0,06852681378460927;0,47750353622700453;0,4810942189349452;-0,21272412329391477;0,38106425331982735;-0,2139075047735455;-0,10763886248952528;-0,23871815130237076;0,43969768059882214;0,05364893541800245;-0,2634045535395038;0,2321733833530398;-0,07386628517829366;-0,3190975045723859;0,019875424165049126;-0,281654200126158;-0,13315339479789934;-0,22375340784274333;-0,3707148228031779;0,18193205062742257;-0,408730306294439;-0,31348407782411175;0,18794050260777528;-0,28143513022394967;0,02893116317211458;0,1699869491404499;0,17294800917491443;-0,46888870509215924;0,14512242070183906;-0,3134723203910877;0,33079399022509254;-0,4821753289532758;-0,042620796878286175;0,09397709918482494;-0,3004169894883719;0,4887495200466594;0,434008123327117;-0,06646780401644804;-0,428505258807173;-0,2748047657530798;-0,4352633505320956;-0,569938239785387;-0,10672010617587586;0,4602497153288348;-0,17008461280886994;0,30346740143511436;-0,2403342727469277;-0,3520805740273448;-0,46940024368745287;0,2691730786929953;-0,47871718015877834;0,44293975169336486;-0,3662430326110971;0,044418110183815765;-0,4377286732672267;0,43682907490888845;-0,3972103503983775;-0,2615387029418646;0,15509986088251881;0,05045821308254536;0,38873497358800563;-0,21146552908169014;0,02894463102080535;0,021122782959965152;0,1358901726218271;0,3676769316914933;0,362395419504215;-0,029473898127355083;-0,1702962625791116;0,37755201413649914;0,21354961113459542;-0,5622031681025916;0,12248987837881226;-0,14308799359913082;0,2702071835648354;-0,18031251055619904;-0,04297791460116354;0,10006220158059684;-0,0607412993111794;0,058409785032940725;0,06773615812494103;0,2772753208410741;0,2622742023607847;-0,2610692831464218;0,20870595478518028;0,22814495702327905;0,3321953279136452;0,7591441601883486;1,003538493695676;0,41558632673497664;0,06829026256149277;-0,3571355327625;0,3064563330873605;0,15131560577824774;-0,38800247514322256;-1,1042712683170957;1,0935973812633;-0,0943904867727024;-0,046055164936417835;-0,22924747251578345;-0,4753200235544773;0,2349419001211095;-0,5264283855052733;-0,21560664679482275;0,1394710963503532;0,10741330922528242;0,002824193840113073;-0,854316413704593;-0,20497927403908153;-0,46937054201533124;-0,00598136110779874;-0,17099267999314874;0,840126142443673;-0,03193395526274281;-0,49604124115357096;-0,6034004198105506;0,2941873292045282;-0,3923200144681787;0,2780008447742284;0,6303337766021653;0,8161605227914359;0,07328005456670843;-0,11941297601410547;-0,35370743219900697;0,43075384382575044;-0,3245626596428123;0,2629679940902006;0,4911600491483344;0,42844214077522913;0,2163840752803406;0,21365798705285557;0,31653256028470267;-0,059566025879272684;-0,2657952665944156;0,19246181252021718;-0,21312208423617568;-0,1939064996315911;-0,6458684053311516;-0,2955840048957898;0,30512168903961445;-0,4351417673591114;-0,5270763932596142;-0,5178113092089375;-0,2845441699778956;-0,08598366883696434;0,6469353756511066;0,9484548566935901;0,7641634852134069;0,31121305841007324;-0,5052339325533891;-0,12137334070246862;0,42881693563628603;-0,15745464783196597;-0,3693559086545782;-0,8333686139072419;0,08412422342287096;-0,49685675286956815;0,21301849144804724;0,34453706124189;0,7033754964961819;0,6673684811529795;-0,3636534857300616;-0,6711932490247526;0,2752188568850239;-0,055660007177088834;0,4303337090330865;0,16873586436772628;0,1241976991256174;0,47469992432876695;-0,42202980256604083;-0,13880618013889368;0,25486804874895547;-0,03924563392735965;-0,31128391923410653;0,2819346497743547;-0,02813478871262779;-0,41480925949846065;-0,1403126344249552;0,3851169962171401;0,1287650592906219;0,45510751332745725;-0,38020361008800596;-0,20254268921456597;-0,1826145925912107;-0,44640660616910377;0,08613309530249841;0,058724678074198865;0,2874443249446482;0,28862715696096364;0,3326712217112592;0,05232489677717149;-0,1611705210434594;-0,3164698607803565;-0,1611860509920237;0,22735254570247454;0,3802420170183012;0,11666911145574922;-0,21673461304121672;0,344043986493998;-0,3003084527783749;-0,32231632043290087;0,027347414268249555;-0,182610810321467;-0,2971574411196297;0,20033929628455646;-0,35231474601349727;-0,04775099633677685;-0,2191441470894936;0,40368209619208345;-0,01644070987958856;0,5903180796493841;0,15228644156584378;0,03469831857046649;0,35827843438298923;-0,12365185665113478;-0,08736879744342536;-0,43919876542768516;-0,43066896562645857;0,7703449540074254;0,5897401467157355;0,2556552267729705;0,24878409876783483;0,4486311666062538;0,6482520960089786;-0,38887341014520116;-0,1661347813697537;0,6585099565631382;0,4848070885462524;-0,2740507372018544;0,3026279233829012;0,8182376530730967;-0,17524893837800007;-0,7530012749168962;-0,11513536938212321;0,25400238823211096;-0,12697868490156528;0,22766160279993636;0,0837664766116971;0,9131790405554133;-0,603944335598778;-0,11814964577331977;-0,3612565209836696;-0,14640219236087024;-0,11481029331868499;-0,2306523771076843;-0,20647654831722942;-0,3746062301714075;-0,031460802770715036;-0,21342226058761304;-0,3655972159022689;-0,29925574503582475;0,21425922528630204;0,38219157865971726;0,0908668537142736;-0,49419121543866096;-0,18042931310491767;-0,163083468335239;0,37362651884186365;-0,26327365205048914;-0,09232778869573438;-0,12937775383889416;0,23059011050913714;0,3671440029380006;0,42714300002028227;0,4842780133980522;-0,33218578433173174;-0,5560878738680005;0,1450168529268688;-0,250673994539187;-0,046752832239413476;-0,3820037200144035;0,30460910425949345;1,0380957938207491;-0,09205597984024494;-0,4844003761905756;-0,834223560479731;-0,315401633029821;-0,14217919186941064;0,26899670582653906;0,2314151656724413;-0,006771919883287465;0,4838828846392816;0,016892383776464796;-0,3816024513428854;-0,30351050264595664;0,1429537761426411;0,5232481123295852;-0,44151791818270364;0,42525546768957456;1,008057091395633;0,21633455581747116;0,047812144235175415;-0,4739491875442567;-0,33606912222480295;-0,204865663935986;-1,232126211861805;-0,04495168942304605;0,6013375928999406;-0,28038922992380444;-0,14128294058736918;-0,3567056052986104;0,46493591802679807;-0,2912667806693651;-1,3639729780637682;0,47620419376715617;-0,45127563715666064;-0,228842461611642;0,03008701049990632;-0,46379640100754926;-0,009566648601277337;0,7031734370013326;0,5000837648626678;0,06048584276137164;0,765956099279886;0,27412846560638265;0,143457618253051
-1,1934178907640913;-0,7100576004297211;-0,3544071731447181;0,8173088102261744;-0,14848561878267347;0,2071224152857418;-0,5268514528940553;0,6083694468218647;1,3843765726526014;0,26354594679785087;-0,2171733716735;-0,23705449149702051;-0,3109221013530848;-0,1440523231657397;0,8169734355479982;-0,9419665425803977;-0,26235732198049716;0,5225815119372734;0,4711155228526144;-1,3047311889651905;-0,5077768231908341;0,13653292956667173;1,1637788606114137;-1,3066951474161252;-0,2556376895791643;-0,17354073980770324;0,08595036442003866;-0,5009453801472409;0,9170840399345423;0,6407584886314392;-0,2251106818989509;0,48482385820096385;0,17149676755021032;0,7607338509138233;2,0721575056547756;-0,48333116305576945;-0,41309925664593167;-0,5869670180171377;-0,10911683744678051;0,06941970077697222;-0,07645854304715383;-0,2236164371527883;0,31743854004670224;0,25480096949041153;-0,870692056335;0,11160762099015893;1,073951231649497;-0,46855543539953165;1,4475820303192928;0,808398571430054;0,2408062730888453;-0,06958865984674592;-0,5756628431788673;1,2698734678971957;-0,06653867443350785;0,18774901588883092;0,2747824167119958;0,31877575674329367;-0,39818489787609146;-0,24432414497714733;-0,07515702893137724;-1,1016056613503165;-0,14508962883894497;0,059564606148490816;0,19744854181063293;-0,13049367456609928;-0,6280103192268698;1,5725366804090872;-0,1596092457071386;-0,3168737335976927;0,5480202762550846;-0,45356149243463584;-0,8371313731826533;-0,2914830101649944;-0,09407616345531755;0,24325906938694586;-0,4870010969677694;1,075394509313126;0,059873892168739666;0,6916260533728003;0,5342023654145224;0,03864775088646323;-0,6657015488496181;0,07415004489144064;-0,6519245693699357;0,2027924158900246;-0,3987732383809916;0,08576656459342807;1,490519232966119;0,11379833591100137;0,42282655011880443;-0,26270429599222606;-0,23159215027219962;1,531438268419222;-1,0656628313502692;-0,1510991115370168;-0,6810683175519509;-0,771592859566592;0,22773921961426902;0,24593406071488105;0,5501518000265267;0,761867768865155;-0,16005069569737432;-0,7516248439649268;0,05998648993234084;-0,10105546364927136;2,067012774195288;0,40609956116929896;-0,5419279586853764;-0,6221924403951723;-0,5577175177293472;-0,4933442583070623;-0,4096993284391975;1,2541764202849448;-0,7990490922337032;-0,07039416114691721;-0,6112359987021809;-1,3966803616580183;0,9828565778748176;1,075644809054708;-0,45968310278180324;-0,016967224242077972;-0,444548504204859;0,4048595178140895;0,644360874947227;-0,37726672994386934;-0,27955177807086445;1,4007235753487173;1,0126334894025726;-0,23781811101070702;-0,08169421340125696;0,12052149083091866;0,9616944129916496;-0,7477779909739616;-0,4864339012002594;0,25493366821392993;0,011345153250509773;-0,11071660389207895;-0,6230492760688762;-0,10042777204936028;0,6148366719816775;0,31083595554183197;0,5441222748799922;-1,0277846627347298;0,1636809227520339;-0,5603320617513294;-0,8595181235602101;0,3653496452320048;0,7179277060741726;-0,12823176964614005;-0,42375641162750477;0,5812996889991783;-0,6415476982179524;0,5081166445643942;-0,79681038230802;-0,08005261670887717;0,033264530212160984;0,6654842560697358;-0,399822067365543;1,589954329897651
-0,9784387894318329;0,5475620000242387;0,4410325183431534;0,47883646234175176;-0,5676080189869662;0,5305944033564689;0,40664763969578066;0,07574313857011424;0,3755626907440994;-0,039182105525508756;-0,26547682992831473;-0,0669944505396494;0,42060363493427555;0,5965087452488629;-0,249288473935994;0,5237029827971275
-0,20469067515222303;1,0194904965039462;-0,6520216651320055;-0,5207617413196715;0,0632493789273587;1,0262591293235965;-0,11177639976672979;-0,0183300406161038;-0,7081574066923695;-0,804823609027283
