-0,22966476230075952;0,15154354185106478;-0,46945328016928195;-0,35456872041944476;0,2875593110008298;0,3278705515276724;0,3821489432257953;0,40751623287421446;-0,24531277436850202;-0,353177235842186;0,3994716373113822;0,34937552383010834;0,47953382152990665;-0,023849656649666397;-0,486878101591;0,13463079236512068;-0,34337612685664776;0,33677929268653917;0,4088282551949201;0,06681892577889016;0,3693987720166551;0,006282695119279713;-0,4637205792152975;-0,5024869105555294;0,3547100507512877;-0,35072371083608256;0,19056973013081166;0,45137035401715814;0,29421009758059224;0,4239581103983067;1,2351769220960411;0,17209936112487306;0,15779158635223886;0,1988970387758444;-0,13422562928510132;-0,05855485179278337;0,37457697231963505;0,9310078732839008;-0,09096166215965079;-0,3206414667433878;0,4807843362048139;-0,4291154027901946;-0,0068277458296779085;0,6940868939633521;-0,14728203863882036;0,09524698537382166;0,1526421922788549;0,3696782685630995;0,3339329213492101;0,020651774024459838;-0,2557676248860624;0,12951658095704394;0,5975832273716692;0,08332929534720315;-0,33523145258828874;-0,5046424927383135;-0,34813371062500054;0,15763990031481895;0,3525051268641099;0,49746416775924834;0,6059910202663582;0,48333996714253213;-0,09293380138035183;0,04239050647825605;0,0032550051340371105;-0,49192433932533314;0,4149255284633846;-0,10225808022073715;0,26741997589673705;-0,05725941093866064;-0,14568648094509654;-0,025987321532181456;-0,2909031664039428;-0,2739133764367245;-0,06240287905106233;0,44043174224144277;0,575202239037307;0,0649074751387357;0,4246486446166682;0,35005034825216585;-0,32199671158383786;-0,35658315341691393;0,3675535856433834;-0,006870820358318639;0,2777889980120037;-0,6094799744752247;-0,6082092044356022;-0,12432084114801577;0,08811728900083374;0,3952393366003394;0,05514616217045055;-0,8202799960323098;0,2158113373631727;-0,42161750924495994;-0,6453905338265215;0,1095139232164209;0,4287113564323577;0,3568270450820176;-0,1638211143332238;-0,09864298484884802;0,6335296985297664;0,022124021654495663;0,0851209569129452;-0,17710936297194071;-0,3648696542387428;-0,2360122997376268;0,37918232686958325;0,6229238850401282;0,6122425335298415;0,352334881787349;0,6603566916725395;0,5917498126751279;-0,18271607129949705;0,2073242488910953;0,11431581497492473;0,4376640280172444;-0,3657492322567959;0,6363589621974863;0,11357845071380947;-0,2663663720750616;0,06531421735451663;-0,3575775688426605;-0,09983735507899229;-0,500479697706845;-0,7018906006560567;0,1150655477207896;-0,31839428198305003;0,047602750061111344;-0,0065409529994049425;-0,30061615425157356;-0,2561906463076917;0,4673282496181688;0,2987665082051795;-0,36651632737087225;-0,39851921155522707;-0,48837323976129937;-0,27926156821274034;-0,1090509384424178;0,028452533447429797;-0,43637902646758553;0,4392743149763703;-0,03221769138860041;-0,3784897984990161;-0,39251777024835965;-0,011403957473062795;0,05871868246996883;-0,5985265002006624;-0,17010031315094232;-0,21126848473124646;-0,14772065317696143;0,6206153754084419;0,6352586439850041;0,4484031700665476;-0,1728335221276782;-0,7705770786670443;0,42968909148011775;0,5479509263108285;-0,08143847003346766;-0,17686651248430874;-0,2628129850124976;-0,4692197244417331;-0,21592150137408697;-0,5244591266341976;-0,13082457321692792;0,41660719853590816;0,004600138233092297;-0,3419116864998925;-0,1576146338132597;-0,438361524633931;0,2706882374869765;0,012775772219957335;0,48192165080599775;0,13239496852432062;-0,4017962960380421;0,2497347948262536;0,00546138660556215;-0,27608552324962765;0,001399295391513332;0,32634495877058756;-0,1959490662951122;0,35783979614706346;0,2301758545345388;-0,49030653130904606;0,21328095315728332;-0,3204029038841503;-0,07424021126294579;-0,4332335112578809;-0,49501042000350415;-0,15801576732291384;-0,45599788269870134;-0,43368693242916717;0,41929513946414637;0,3411553815089546;-0,4088090551743572;0,4422184824043622;0,21985271169002207;0,23108349807036924;-0,4402806494520838;-0,027276053126259976;-0,04401107184309663;0,45757006466886774;-0,051830292123777134;0,08498994297698803;0,1200726270442139;-0,3390263213848773;-0,2460753953797838;0,2341446851195574;-0,1810829421923987;0,22880789838739518;-0,47012822017322364;0,2188767719564402;-0,02190750346872032;-0,47516847055230116;0,12552934552580997;0,4995230926383129;-0,04193810159933092;-0,11285375486592254;0,2684499484745547;-0,11066694843413559;-0,004434145805010062;-0,1945306136818653;-0,2968936379085604;-0,1277583307328891;0,3615136468923208;0,05637107843332487;0,3212212749497197;0,38631099294209625;0,45795793621471764;0,7910416874188676;0,7955389062527762;0,16584698255970812;-0,2108720780131842;0,4052918576384089;-0,501950670542605;0,5119292959418793;0,4948389198835216;-0,08762104422873322;0,142278455367192;0,19348136747340183;-0,11254395133825632;0,2583119139527974;0,30984155758696885;0,11848994183095023;0,26761581814881885;0,20080788999847096;0,20430622627287487;0,3273690966244063;-0,029259596830784718;0,14661344329056672;-0,29916994316549955;0,3481658342505041;-0,49454246558199855;0,417004790573532;0,10380757173128721;-0,10822186599161793;-0,13416713074650896;-0,034551061674615455;0,24784401913644558;-0,3731221461889779;-0,20471763067246276;0,3526586087747515;0,33175377965256864;0,40214675973076563;-0,43901079449618624;0,2868270944718576;0,3280562519086342;-0,41929880931657015;0,5208980143895395;-0,33606212748674474;0,16057923999203405;0,1834792888955107;0,40554188580239287;-0,27871420419908005;0,4192703513147006;0,3072377546158435;0,06483457915362655;-0,07666821964837636;0,27626569740312584;-0,03327179453975184;-0,4621000926622956;0,006280245441263138;-0,3013575701963378;-0,26800730070648787;0,19803292069628314;0,22284285472662915;0,145706912075058;0,5209500392957171;-0,26459170340001287;0,005805505975853473;0,060703225537971015;-0,2220316644371715;-0,5167489462844301;-0,056162985757905313;0,32430922120793293;0,0493481343774839;-0,17285714820461995;0,4141386426179418;0,24840181129282365;-0,19087368800244933;0,8959798568018423;1,2134359253174969;-0,173135945192555;0,29505626930137213;0,09344758101499889;-0,02114333707360683;-0,218468654499509;0,05877031834613637;-0,1379898669951514;0,02462523344604244;-0,24177882194875858;0,12015577655378532;0,15270913110618028;0,036600135007941625;-0,2783105519609651;0,14134306415293835;0,08465437665752268;-0,07963845823359902;-0,2965513060220912;-0,5156684644846314;0,34162924510372683;0,12324762515353754;-4,6534533154701965E-05;-0,26059195153207915;-0,39560128432345265;0,4917919533779055;0,4618621439570303;0,4381218298521582;-0,3160402414764379;0,19710428860182705;-0,008871638856624935;-0,36047068012890654;0,3937607626048063;-0,23911286177267463;-0,21764554090231156;0,3501175439685105;0,155630135829134;-0,4017535460429329;0,03506837421919449;0,07895120995272904;-0,12305146021898639;-0,10968773032223525;-0,3427078699988302;-0,2321387957092022;-0,2390280627804354;0,06500356005873952;0,1440345543951735;0,016859552368964456;-0,2683760644191354;0,467727140747431;0,027474863985333473;-0,3690207969168974;0,22830320317845618;-0,36843346922146336;-0,18865241264693156;0,022552761599752315;-0,08198779230757672;-0,07444543962118097;0,2619433425754917;0,36484612300963287;-0,3645948335920288;0,27236496731444804;-0,22933553130195472;-0,3805798070572052;-0,35447997671747944;-0,2805265686419892;0,4383148094066657;-0,41701931127654146;-0,2773006835476987;0,4086112699739477;-0,31469200319642354;0,03444654709665054;-0,4010347271154547;-0,08069170939376694;0,20147386303209328;-0,1186221636423856;0,088855599267514;-0,3017079160964236;0,0819270242190296;0,10490054461007217;-0,09599490297240232;0,4524475716357561;-0,10524037537650496;-0,142647982466485;0,32762365528496357;-0,37668437485470235;0,2592656959093127;0,03318665861202527;0,47151391945811366;0,23533089237334306;-0,32929572561360215;0,4923565290203696;0,4041438330714345;0,3431091805104296;-0,39373609416678534;0,499877986258554;-0,06854851864650902;0,5709371932612198;0,2500060730765404;0,4309400502605206;0,3838944565090643;0,4478593095592085;-0,39842890156524857;0,07498472409435267;0,22402642118249627;0,3268457110043621;0,4042586929080707;0,12487168656265983;0,32943971124077215;-0,4817226488970122;-0,3045570272737398;-0,5051498730614018;-0,2647874943826191;0,21021862853672987;-0,11551952710398475;0,21557045913976974;-0,1727930859203463;0,2795062197501821;-0,37007413457102767;-0,07130904566521917;-0,2301580150163639;0,18545147471161852;-0,20165641718915972;-0,631372833052062;-0,3989863651397319;0,4630054322520865;0,5945795190319138;0,45803315913900083;0,4421233824550409;-0,5873457003538187;-0,15910460692608164;-0,044125510566813436;0,5801129891638831;-0,3718956836192634;-0,2840402322702035;0,5492252828907902;0,5453221077657103;0,24409592143031217;0,5879283007798972;0,386796937427304;0,34636711228648803;-0,08842861542324594;-0,05614309808392389;-0,2970166417904128;-0,028709803248097424;-0,2896975260650819;-0,34803348584273297;0,2479914549261233;-0,3498285080257463;-0,2832769916392267;-0,19818976056498483;0,43184390362811265;-0,07529615081204184;-0,40040674771155993;0,43273980431590503;-0,0006059544816132571;0,12279082957524166;0,065381798095585;-0,10478689423149126;-0,14491681269516243;0,043675263069662976;-0,437730654531519;-0,14191089520822042;-0,06787791531550368;0,26865238597471797;-0,24477971338604826;0,14037642320982333;0,23423814353810515;0,2271782670791804;-0,02598362123086145;-0,3069647349121268;0,3518175132772281;-0,35117208623833734;-0,11247361853652203;-0,42386901332317795;0,2192510035984025;0,043628295571217814;-0,2500727978597534;0,3469471638489163;0,6020992041718193;0,36122853020253143;0,2997733409096195;0,34874057490710353;-0,07907710959519879;0,2509736973029459;-0,430996582807406;-0,7210368603176782;-0,10706726187174004;0,7572806070741066;0,15481324830847132;0,19317226591740613;0,07954456712717071;0,4454850637209061;-0,10800880964065009;0,3280044011935855;0,6469799583779199;0,2609458012219672;0,0013000747935828835;0,21668489672376445;0,26408916037877705;0,5743151443463296;0,4372335863100154;-0,06417335513685529;-0,2480911475001679;0,40729950206271576;-0,10293307753780082;-0,28185242037997055;-0,42340535421131004;-0,2730454472859425;-0,20211077859345558;-0,15212884817577912;-0,4346476778651142;0,31035355787504537;0,000520485938812236;0,15429582198950326;0,30136105504330174;0,2263630832916198;-0,45130637805203166;0,14449122125214445;-0,007991334435046824;-0,24292879079522986;-0,28903416006368926;-0,11586840121856055;0,37695339941669975;0,5061981099152824;0,40637070708730766;0,41843879817428725;-0,1955469407721374;-0,4106173545122997;0,36813536059391744;0,09092320119401691;0,4012280337927753;0,23174807595698924;0,3742955074063469;0,5887396318478643;-0,03111674759482969;-0,09822471606796732;-0,39701241267238074;-0,4634510429577783;0,44759370850073127;0,3486152134623036;-0,4688458898891898;-0,38978931250901017;0,40088482618695587;0,3402476408582754;-0,23428729304761828;0,4730485166062525;-0,1553393336551427;0,3677879052864315;-0,43169299408058437;-0,3266755153450035;0,4590823116327863;-0,4358243016342689;0,3501385695595178;-0,10745532935147527;0,7298426853501317;0,17141253452577804;-0,46674523522837685;0,4280167337633881;0,37245473639120236;-0,3059003179901095;-0,45254600632471503;-0,1776241151781486;-0,14021931942367138;0,3532949405622475;0,2778996925098728;0,10546135580649987;0,3546386010914697;0,5046121139083732;0,30975425353074676;0,39129676415185227;-0,03914869189169931;0,26479392255962136;-0,31565696569687557;-0,06358262331546109;-0,07759487826111078;-0,1910396662834914;0,35682366456214143;0,05477536116581869;0,31388086726041303;0,27347921561269267;0,20927445308999243;-0,31985745613738925;-0,0910646928604714;0,08326587548021697;-0,22878672093727967;0,12418631911408964;-0,31080367406431547;0,05857670757088959;0,23858705885949014;0,49098793723697703;0,20418689109957552;0,1899365822449643;0,21945747973516472;-0,34282983693804675;-0,6108715230601812;0,14404819383643494;0,5424994335581698;0,35039297683718396;-0,650160157525033;-0,29637023020755315;0,027367115204293982;0,018874289598371435;0,05890596980609848;0,3131495370886672;0,045062090285239186;-0,5637844582134335;-0,0744575654728041;0,3515268333136337;-0,032146728044400955;0,1443808239854547;0,6988433290838538;0,32917472973865197;-0,1440192836746328;-0,40421520072125544;0,23196602534308333;0,18667239748895725;-0,2828168437232403;-0,2212438272750919;0,4718883519937335;0,37769634486788445;-0,19927879954313096;0,08107586851872603;0,09042066012756785;-0,10825266276225133;0,48954639015724144;-0,39200631722721646;-0,3884312234813317;-0,05798827490346262;0,17807159092086744;-0,34534969447569336;-0,45946001917126106;0,34587651327471697;0,07620163443966438;0,2793749022372491;0,12451552546667592;0,21006868098250117;-0,16438319350127417;0,01479671957044716;0,07480145522226646;-0,14277342840360147;0,01745895160736875;0,07085702954138876;-0,3815987724432561;0,4337992373579108;-0,0889936865638664;0,4307397743517419;0,21180015171767358;0,3506730591656533;-0,2720525260581046;0,13375188831531878;0,06446277493409076;-0,20180574789955735;0,7488521533320635;-0,18052136972252786;-0,3796686971037073;0,3237996643649513;-0,1796069900863441;0,11549094518215698;0,2777412546187532;0,6280833072891685;-0,1913369796147443;0,45764576994946804;-0,20437751773321633;-0,1724755174299431;-0,2986322982888652;-0,23153345794597072;-0,37248866503133504;-1,1582358523529372;0,37852371885705427;-0,0018551492558204965;-0,7869957869774505;0,31875178729516196;0,2151948175701674;0,3649966489267517;-0,3232464094564231;-0,30067671910962296;0,7640267359576806;-0,02095810999192873;-0,007689482032403344;0,2610361020012533;-0,25222330532302994;0,041563143907836005;-0,02364452830211596;-0,2557695308546111;0,6079588290268088;-0,5708294269757211;-0,3864965612277927;0,197556928167187;0,04609356147198234;0,40327040637229006;-0,042960167923781864;0,046434863308097506;-0,0028600998388291087;0,4359709326426485;0,11413071171785484;0,19755302407454448;-0,0025873504683786575;-0,3296112525716693;-0,11522254914077085;-0,01582812818228154;-0,022627002259879497;-0,1274216978534898;-0,14959803252389076;0,29335231148780794;-0,28670330613443107;-0,45743386856374896;-0,2200317647825148;-0,1474782811674411;-0,2506395294256376;0,3511561403414528;-0,4681983544133165;-0,28280034482651617;-0,3476206267539906;0,390002634802293;0,27913299330628405;0,48551740543033534;0,2762699890142779;0,41522986271493006;-0,1787034394340296;-0,40187831011374764;-0,03578012329361644;0,09178025090740431;-0,19373195259628875;-0,1736293607283639;0,4707778508987213;0,39914253525280485;0,167302332007398;-0,09178780686139877;-0,2800740896995671;-0,48295864395149407;-0,15970599187293985;0,3956381161211259;-0,16099582762804035;0,05326116515295407;-0,2239771944040519;-0,20618304655249353;0,35362360863997383;0,45283463944798363;-0,23238511542367676;0,4677490586899498;-0,46343857399936667;0,06418183670251736;-0,003150916239927617;0,3070627536632265;0,4288706310655957;0,0952110378612484;0,23325755261955491;-0,07901148385512337;-0,7404596907765492;-0,25071973264657677;-0,19359970331951967;-0,35996223587743337;-0,2627410316972471;0,41894301149992436;-0,30190482471920677;0,054743798603967636;-0,11431189684437246;-0,23191352283628222;-0,23290571475025398;-0,49681382513150596;-0,20036549030304215;-0,07989609852808925;0,03877016509630493;0,17875057770395544;0,3820640948656615;-0,18723653770310555;-0,4774183505997333;0,2911060415990171;-0,3009699284945074;-0,3897500760809036;0,39311772834906666;0,14931447864933167;0,15628052647878682;-0,08175992272884916;-0,01723402955928808;-0,3103999492692573;-0,4606515318030642;-0,17399105917392846;0,06721162806408319;-0,18946912009618172;0,527598315577678;-0,18916918948279157;-0,27059887514976955;-0,13825071615772572;-0,05337498964981324;0,03593023963500459;0,22716466980393607;0,37258042509935824;0,37618686366593146;0,27083865943402124;0,46586970320925;0,5200376358685302;-0,10301371969320898;-0,39105560248973986;0,22423627434096122;-0,3155496870081019;-0,4706633692027877;0,06757045801568322;-0,01436414624062167;-0,39916200007227426;0,0909338189749576;0,4710726175459865;0,172315148523822;0,2755351800424853;-0,11229133128197914;0,1100581491255335;-0,4882823691206876;-0,1147354750925971;0,008783775995999046;-0,338916170149049;-0,13095545033101932;0,4805892444149133;0,26580720210409514;-0,1701997352953349;0,16203744289728697;-0,10638425058791814;-0,302321056208556;-0,048705332796394205;0,6685439427655234;-0,29444131809155405;-0,2968912631822093;0,150773853968698;0,3488867287655989;0,0034385940220111556;-0,24195630718307246;-0,35777602858241087;-0,2991434768639443;-0,5324299883774246;-0,2983883842353503;0,13931651125366934;-0,1515577456464208;-0,4866291807142626;-0,41668160423399153;0,20779095508222412;-0,099083661778147;0,28713451779327454;0,07292551517958865;-0,19690186910159801;0,12078898468491053;-0,212242830853962;-0,2610550968697482;-0,4403486893935049;-0,30758951261569056;-0,3840857077558205;-0,5006623315752287;-0,15813896138895475;-0,2518367612039522;0,10158696129071829;0,13131164360907718;0,19630944228808006;-0,01925566795166316;0,24904362257756565;0,482763262658496;0,45836836082125076;0,4655781363252768;0,6705822183281958;0,46577718729172735;0,03010348842135048;0,8703675701034023;1,188496584067864;-0,03377643121370937;-0,08713798016159566;-0,0535622700272053;-0,054340634165238905;-0,2753508671932141;-0,1521493700868339;0,6181222878360513;0,18671736094090965;-0,2062773655529136;0,12178406013006912;-0,08478221189291467;-0,1516243225438341;0,1305100999497532;-0,1090681526791369;0,43422563766093936;0,016712407603180365;-0,016817845158611965;-0,11145198738701222;-0,46521445868170386;0,4227681796852572;0,027401637549508393;0,06482065543266625;-0,2067425306293437;0,33190671166193697;0,18536473274487367;0,2196150763425358;-0,16046994513593313;0,35504552296731423;-0,3155618745124604;-0,1740497021975783;0,32322437211972677;-0,08765082418468007;0,21209391149305085;0,5550878720033506;0,5488842962865998;0,4738774362607288;-0,21087822564228817;0,36711361781938134;0,1316574235518168;-0,11830899671213928;0,3001487858710913;-0,26614145941211514;0,15527007386518524;0,41363735005544644;-0,27691453792633397;0,15254346044994024;-0,21729163023140075;-0,37250798139853686;0,25724280115788456;-0,04943410884439361;0,3138973051398134;-0,22651758238639744;-0,40322171783210076;0,4036909356604844;-0,21115059431397656;0,3614480096117873;0,24924695933550656;0,6157426396195295;-0,01828917432257638;0,5683470610296496;-0,17152312510624132;-0,3063457775849456;0,0054241865207288196;-0,3249597880906656;0,9205774502364192;0,11853319683621438;-0,11353773000203773;-0,16620792768429482;-0,4328987966219691;0,16873970579038816;-0,11368680994574769;-0,20087268698651922;0,7793460578852722;-0,746023476317801;-0,12829140193127123;0,0516597555268616;0,2174540346063485;-0,32433882039418704;-0,2701599879658698;-0,028803449370620734;-0,4358187352852431;-0,35262546060916133;0,24854268994004552;-0,10910298651194282;-0,042786474675398964;0,42266086380303713;0,7452976903662494;0,47491623285616547;-0,07054507727459212;0,8728470680865847;0,1942933598344816;-0,1363655186174873;-0,10760546563330319;0,2363374015340914;0,04430615000845573;0,12386608594723843;0,5772524594267274;-0,07498529980721004;0,4922178102987043;0,14876187545632766;0,37130194587506815;0,29909727569260647;-0,4893941773240101;-0,13414390841007395;0,38739032827240755;-0,3638526843122654;-0,49952383684530705;0,20645236771440484;-0,4320456719126619;-0,05846249812042249;0,07787565792598686;-0,06164480795599264;0,06475776480747499;-0,10827003816625264;0,43123092471827373;0,21148571645201678;0,4483713688815654;0,36550853227558255;0,0011083943123647976;0,6350582892928416;1,1443232984201075;-0,290694468983558;-0,13427421362183453;0,03580642865829384;0,375395561873568;-0,0728999902012715;0,22094546144695873;-0,4053891341889117;-0,17343137422543267;-0,3979686295704209;-0,4985691055037892;-0,17226354124052926;-0,31366572476618015;0,23264811575041372;0,3414133809783013;-0,6749818942544483;-0,006972283630156479;0,14363756581662782;-0,09107908128733999;0,2702659771490373;-0,0037307461914450665;-0,18859245291828564;-0,11533415021318785;-0,1533648856992169;-0,5994178167842027;0,2508835694899557;0,425660160515299;0,046229260741152085;-0,2757734907241286;-0,13266964256607927;0,03923749000288087;-0,37949744608887004;0,1885724447960658;0,3215068599642696;0,3066388875491358;0,0088725634978509;0,2689839495738682;0,026452937423441555;-0,4164267028524168;-0,23942700651079826;0,18786203009507405;0,10269031773385531;-0,29014810115552125;-0,10147943573899706;-0,24462144238931602;-0,2936904371963435;0,2768524155949168;0,3755536166358769;0,15176514410475167;0,06720298621329746;0,2207742799840334;-0,24997029621131056;0,18889750957234164;-0,040515145045853525;-0,27064311961459786;0,6879255684078283;-0,23920234757419187;-0,20581398963972614;-0,04696548629259515;-0,34880990531140493;0,1881493233216776;0,47670170139276363;0,7052053701122275;0,9492868979609004;0,8721056669645144;0,3155013650254606;0,14903748191676514;0,45108192753496273;0,3841836118696972;0,1290633488417841;-0,02027578380050899;-0,21613619932334574;-0,217682418304286;-0,03756734932035049;0,16324927154651667;0,3960308250627759;-0,168251494097971;0,16481479510143304;-0,24048816051689767;-0,06140752676597809;0,29820540533338363;-0,46285403548157045;-0,09807766887343164;0,009557558633343467;0,3646584605577021;-0,3619368741714506;0,20321551810417965;0,4102877636876567;-0,39139794483349244;-0,044081762534449766;0,44524973069330825;-0,16253561023087418;-0,3801720099165868;-0,1143143636976984;0,6498722912706558;0,3940235072770476;0,21391824486602276;0,11848577095882243;0,27965870266373466;-0,052845910386260346;-0,3834188352770049;0,3763168305846876;0,07105463310927294;0,4914622786647196;0,3619107329026225;0,580420560234944;0,32921141007203725;-0,4229495803567733;-0,37806194810533844;-0,2401649880596815;0,3230017651793413;0,34811709001123514;0,44899198344151126;0,05052136344720616;0,2469997368482182;0,04432160686360476;-0,07859004900568133;-0,4382458987457503;-0,1619453927954454;0,2496117057046457;0,040929767762452884;0,3733353142458115;0,09330581945954905;-0,41310700755615937;0,3156576984751687;-0,05546499527513464;0,16934753053845814;0,09148013078267003;-0,08827717313361907;-0,43075287653716793;-0,034913769582550616;0,36043642134792825;-0,0495338626560467;-0,23802104981909095;-0,4131160391494326;-0,10087975149287924;-0,4274921957412747;-0,22334047404707155;-0,23801852663744222;-0,3875750133652974;0,4317151275595945;-0,3738985147449032;0,42966220409182715;-0,3676889904283876;-0,5054388470222223;0,018573627915444275;0,18543149632628805;0,1389322554998015;0,4579062312866321;0,41421726460812075;-0,0412504364152397;-0,27730176433742404;0,15671043147506;0,27827488853034377;-0,4086682275713398;0,4475120264678349;0,3090296915914401;0,10498063588664569;-0,37646990721607837;0,02122269247565893;-0,45750172398812416;0,25432698861552705;0,1535140706501569;0,08519500508817238;-0,06365959944253188;0,3400821831083424;-0,17137059664478002;-0,08669052344268834;-0,13832920933055232;0,32147949146834376;-0,44275838203264356;0,011645187354744917;-0,39511581485273856;0,3089198997039299;0,23684876833143342;-0,433925638976883;-0,19657407446271344;0,07337443057378644;0,04379422076970873;-0,5038994641813256;-0,13578538493964748;0,28124046539681724;0,46649012360134623;0,4909413606470069;0,6585589291271472;0,24505892094315312;0,31836944036376513;0,24172834055370346;-0,48146805828639705;0,27690506121966785;-0,05021764528853423;-0,20068108042225508;0,3740145047673103;-0,21823303373170305;0,11198146517236496;-0,4970671693746687;0,12857461710061646;-0,3935767265311241;-0,10308262615657043;-0,422979423522179;-0,08717654892354096;-0,022314429728986302;0,14530717995368378;-0,34805124432606016;-0,21314203183790603;-0,021993141873887307;0,30637751773169;0,17104865606477057;0,5785344271479662;0,22559624256969352;0,5654666744156263;0,08551848216747557;-0,2031706375558603;-0,1417992949295625;0,44073247154569095;0,4001196491175501;-0,2647161205155006;0,04606806382238059;0,14255420915119335;-0,1981701405276274;-0,14540858163121176;0,02559341645556322;0,08943348908471047;0,6182620497162541;0,8075491713159204;0,5984957731652017;-0,110944992418957;0,3556596564750999;-0,3796238740493856;0,3915805667479251;0,19973895615440412;-0,39303030885510765;0,18564743081600665;-0,1677098815992846;-0,18927933234208388;0,370306154799767;-0,05598868927172375;0,039147046925838314;-0,4022475994827337;-0,30525809220487743;-0,13395618291974248;0,4194789437446255;-0,4369808642118379;0,22480774414200091;-0,16666410430669998;0,4540990859427234;-0,3624819573607444;0,14178113512206267;-0,23758418116070557;-0,3633370548953203;-0,33413965724768924;0,06435571065069638;0,10044737175169546;-0,1264722350406012;-0,010465111188379898;0,18414281933113025;-0,06362348063510825;0,6647294917457923;0,2819701157684048;0,4276530923388548;0,034129214092184466;0,26671466928838267;-0,28403678926306664;-0,3774815347178948;0,2980904070258862;0,5607606819674731;-0,09078516641785245;0,2620968024802734;-0,34900046237181787;0,32426204474728704;0,08604054108508255;0,09208402800591575;-0,7355448622663643;0,41705487577944406;-0,3208955983962475;0,33237374898760325;0,04076110134611062;-0,2078439350748695;0,16944187548877604;-0,746197716310845;0,10138912551216765;0,5620974071978386;0,5732338579749936;0,30645901160484207;0,2527249005234773;0,4001489323686689;0,6484284637812732;0,3798550017518237;0,5921567114878581;0,05153989626407036;-0,2066583862411952;-0,044364674596158477;0,37392674879389864;-0,13667765191076758;0,3148317692517065;0,5341291302983889;0,30825804207387053;-0,3509493574601577;-0,11417354946810626;0,34196629208306994;-0,12216626297940292;-0,16307157754499615;-0,4022192059310243;0,35215885783769796;0,37797589767618006;-0,12262329631228515;0,0774973052130326;-0,26213988851702474;-0,501759916175746;0,2612391825561345;0,41406739317788305;-0,17017068668201416;-0,1135222640792849;-0,5755322671112176;-0,22271832625225035;-0,4560767828128404;-0,4901345042842683;-0,21562952225696908;-0,2152527132096345;-0,053328006814163144;0,6611298749011801;0,8496109901946983;-0,11920359382023196;-0,2952974336771778;-0,3794702220642005;0,23587187281926356;-0,21646228163907077;-0,5684133206613209;0,14700961721053443;0,3989953879960373;0,5175914006530701;0,38182343919283074;0,2214001929042508;-0,11116842010184413;0,45530082014420414;-0,3509985975739671;0,37279972609707873;0,008198400819946172;0,4211058904569792;-0,3904112177284118;-0,13084255458674024;0,09390847141164727;0,47530328678266975;-0,4946096241913182;-0,38613511310282417;0,016621820837867195;-0,559629345778904;-0,06498675352608665;0,21556266022266374;-0,36992850960426077;0,06919615679804327;0,23397119969372307;0,14798520175718866;-0,16964550139837478;-0,14467949596215518;-0,24005238164682371;0,4432347595480108;-0,03405777158156628;-0,10683964843616123;-0,32144247286676203;-0,22143057742058542;0,5176815791395933;0,3443808192016072;0,4345944477105453;0,0460456344930014;0,36668131491974154;0,10479490437855442;-0,36584501410071957;-0,3836559734938709;0,4285564117180018;0,03291930268392102;0,14606354285965875;0,2918100154986005;0,44728929410531804;-0,0033317629170411677;-0,0027600842888490934;-0,021146241933829413;0,2007111833391848;-0,08611010765603959;0,4016043891822225;-0,29919981106233207;-0,0022756564118409524;0,22258548066623773;-0,5068045918888111;0,42649427275012275;0,014376483876375048;-0,5103851114903484;-0,2633088269650864;-0,13633362557144918;0,2977655802249196;0,41007882822886343;0,2606883631526463;-0,04016156354441042;-0,20105271866464142;0,16644693469077645;-0,04625690161218376;-0,0066531639912339345;0,077471894829814;0,4912474082195122;-0,25102907454074314;-0,995778165865921;-0,438514215421508;0,2173443564765086;0,16896478139442775;-0,23755341771993407;0,22637480394964565;0,5636839330846305;-0,41675434638526593;-0,5314028902792938;0,30291657080551104;0,6967928552956334;-0,2754425955973966;0,37097515242011697;-0,03922644862220824;-0,2603917235031058;0,45373896502082606;0,6667559156366769;0,47654906333899033;-0,03590819014289506;-0,18848091415841592;0,305195130234832;0,09221021457432134;0,025222899036923253;0,3569749659666134;-0,16681193515256;-0,048092317070364966;0,017025131773013978;0,07450216509307528;-0,4829358523190138;0,4435316230552998;-0,43310486639695045;-0,16631385197061258;0,015507992175501478;-0,4626802409052964;0,25922363924734326;0,41984636549755155;0,48474195756466987;-0,3240981067620921;-0,3591534622218509;-0,06632221655534369;-0,23653357483961845;-0,45130751313232925;-0,010127849269380401;-0,15937594672673477;-0,11042919985890884;-0,4759570370350696;0,29654374821527785;-0,2745597019339324;-0,12075665265678862;0,06539465998938242;-0,20330944771320525;0,18350420903451992;-0,3952773382211925;-0,34718655936438003;0,09116501097947438;-0,19810691606923803;0,060111691236590124;0,4624227806457107;0,1140955648933483;0,29095452672618943;0,20631873213376534;-0,2754579917909574;0,44272850401264696;1,4252694298214248;0,6529759856205102;0,40418945315131366;0,614762041056106;-0,26811060647655965;-0,04978824561711197;-0,4345176455673811;0,02116364385560195;-0,0021245724441308197;-0,019057007172369616;0,6616675532554464;0,35449844740763226;-0,1047371798863956;-0,45065647631549616;-0,02588090984829492;0,05303564825172755;-0,471401487794198;0,3686808405806914;0,8282983579861328;-0,2156761053189441;-0,11647965169799725;0,11902399963197652;0,09851834822249307;-0,4627117608264233;-0,412444377261246;-0,1533387758523898;-0,16450477373464165;-0,17951019366773682;0,3835833927222462;-0,4919467248228262;-0,1969864733821741;0,0856570994017041;-0,3391980851741817;0,46764590398449163;0,36116500640025095;-0,2255725086541026;0,3476849710764087;0,18271793006481327;0,3963227820391727;-0,38998655937283916;-0,28108986583591633;0,37949013343577365;-0,2832752594987467;-0,22026189278078148;-0,3250473110607052;-0,4277250994654849;-0,15645273416969463;-0,3419678281585359;0,05663409302865401;0,4578259248708857;0,0696581575910278;0,31600640525931434;0,47115382657825455;0,4391060815060084;0,22164347150466857;0,49898788581992043;-0,42083026958821385;0,11828468733374924;-0,33496048589708705;-0,456849777552398;-0,17669041814896047;-0,04287665506818629;0,18135682805274098;0,36558008215120186;-0,25980052068907594;-0,4107646374331252;-0,09420723201846437;-0,14602757843577538;-0,44821707420684137;0,24864695309294824;0,2279131493779843;0,3736686857114969;0,3441827890956351;0,03804687545974752;0,4182963711261457;-0,04814059435967841;0,22162584749254352;-0,005015387527909193;-0,02428081084600022;-0,2407133812584557;0,21991877746522082;-0,4857440456394301;-0,10005422609168495;0,473725198390331;-0,4104596068377026;-0,317623924809956;0,27970252477619945;-0,14639626912408424;0,1297502868912505;-0,22327301148052206;0,44814040617948386;0,44301499548099665;-0,02232410431545241;0,010750052380637497;-0,45466213851705706;-0,06884900584269636;-0,3195089642127979;-0,4120646953801285;-0,26552936692345847;0,4619408251473186;-0,014161309590805738;-0,4197801245563809;0,2705254001959772;-0,3580611714718619;-0,15123954028543884;0,2076203543590625;0,0016231750707591055;-0,356936803177221;0,37590309196415095;-0,0466883798521925;-0,20098424209437205;0,23966471952792653;0,04687046175807329;-0,5258168686472117;0,5725941127819105;0,0652174754289871;-0,1807878927822415;-0,10118993616946752;0,2462692612076109;0,6679010121533332;-0,1102894810813195;0,5236042960093453;0,4521462910279797;-0,18957614882258483;0,36495737504943754;-0,2744564560676571;0,2819871351670956;-0,29302054254948107;-0,21882965591933798;-0,27745223353602266;0,4169448297516534;0,43442387955689926;-0,024440836250048333;-0,007789521701443057;-0,19322838297847075;0,18323781347238968;-0,44643211750790635;-0,6175962811189872;0,913779010656128;0,11738863052315829;-0,07030099872664206;-0,38252109246625327;0,23890810770144338;-0,5129440842790182;-0,3871329525711013;0,26773300150760443;0,6314004857989483;0,4166355664741447;0,11971963393382921;-0,20292725930020297;-0,39605755463118014;0,09283941396556512;0,03142864042887035;0,4873716920355354;0,1814496826064501;-0,14414972415197777;-0,4369882272500827;0,03180716845261658;0,05244557368502326;0,3364327704653422;-0,03272221151719795;-0,1581635833434157;0,27332839439270534;-0,15229177980946057;-0,048192402945335305;0,2008482044098683;0,4921387096966231;0,2607190241726859;0,2414025045409139;-0,5799853743286703;0,11107944449947942;-0,054851225615074904;0,46043571577279985;0,25991495036206713;0,09033230225139198;0,33184241405878134;-0,1685815724588835;0,25957487702638166;-0,1598815943726151;-0,20772821437305006;-0,4164834525173656;0,09841204815349695;-0,31991884177651814;-0,17789993351845587;-0,2971432207324913;0,4106759812265708;-0,36539864549402973;0,06895465135323108;-0,4977734831635395;-0,4986876723705807;-0,24969515622379698;-0,0051679372770232785;-0,10649749616973302;-0,13461202435533623;-0,2826599172672366;0,37410517081560235;-0,2199892877123919;-0,4092452036197568;-0,11473729239630226;0,1538312487057664;-0,11502354712022123;0,5049341770611581;0,12550916520362207;-0,16052757302784773;-0,12186416516739763;-0,024211657888161913;0,10463516790547041;-0,2175941687191468;0,2564028036531482;0,565741749477266;-0,1817737673943593;-0,1591649181062028;-0,4823659739577004;0,0365973137422042;0,007447556943329075;-0,19419485172852402;-0,4209016456923777;0,40344964974790376;0,08962105629634336;-0,23044208689602974;0,13376584028292235;0,12740228090059308;-0,45922599341247683;-0,4355167210521362;0,03336204743736171;-0,14877891819410433;0,4960698453507374;0,20539357117395918;-0,22844550915028566;-0,46574031212906963;0,49467326743322765;-0,04175900896294199;0,05918946712153167;0,44983621808799;0,34896716198175737;-0,2893487224887388;0,2363306581393386;0,012509998513383762;0,3693061053639933;0,35267591276193755;-0,17034855524632975;0,7116868816087442;-0,22483529412804015;-0,06744936292874112;0,3129403725425552;0,18004664387752972;0,4635890775168764;0,21410112966764555;0,1591592776453799;0,6637858796021419;-0,442428242800571;-0,7312276575896649;-0,19206130269721994;-0,31864439220499224;-0,39863387453943444;-0,481201952113194;0,13852699000371485;-0,1615381903072995;0,531159094912835;0,4264470148385502;-0,43732983148567456;-0,4684173036508298;0,030296868723647705;-0,11160274249816463;-0,6481122554924361;-0,1492433596256038;0,15942596171345777;0,1697198167487129;0,13519630810152614;0,08256496665143305;0,039362819577940744;0,036306265598390314;0,16623341419578333;0,4772568747528436;0,29180493444496175;-0,009061796517046406;-0,18716869875166256;-0,48932309281796393;-0,0647997295847943;-0,007724162463216039;0,05830816144601581;0,11435480409504926;0,30232922810338336;-0,3421335634178822;0,305032445924765;0,26654867940454297;0,14773996434732797;0,29095581164622863;0,4384525907494482;-0,39031272682269297;-0,3282352159784073;-0,012004996773070015;-0,14155540057705243;0,1989000457916381;0,4275937589043895;0,45494855971805787;-0,25741563776047865;0,3473927991157926;0,22995732444094102;-0,17665897691652624;0,32025172197143537;-0,34880828364588706;0,24947332873797645;-0,18429941116687604;0,6337638983271678;0,12286701284279854;0,6564977946431472;-0,037978754389256485;-0,15069958099298458;-0,25173089812755733;-0,30763542697758184;-0,3060536585394159;-0,6598987800563573;-0,5670674887029031;0,3905654818139019;-0,014828605807235587;-0,485220030646877;-0,4379545098823029;-0,39157268561820463;0,3927406765220249;0,2509799014704277;-0,4842667286023903;-0,0009099562490516137;-0,002568778628915433;0,2329169835159482;0,195591601694378;-0,2818011632895385;0,803420517888526;-0,07479326868670923;0,38916480556844674;0,7117570219122381;0,3712006867085324;0,022706750383207804;-0,06821764941195302;-0,009585766762610727;-0,02290257609329055;-0,3472615000699886;0,15129647055174736;-0,2350524001033389;0,7056671010488275;-0,30299612982999746;-0,29918058875188086;0,48699593882268166;0,013835045384976893;-0,4496443831275896;0,21672468196710018;0,03232991838962268;0,40028837030951764;0,31228761792450116;0,3809741532980793;-0,08375160227402446;0,38941584959127673;-0,46849858869111194;0,14542992404366284;0,24870829233486821;0,13578715924481988;0,08005355981435411;0,18413865918508893;0,1182569640029935;0,42493754034095815;-0,2155497060037976;0,12101740620865716;0,04143029318590071;-0,16811857093917906;-0,2246131191557128;-0,42443882589640586;-0,3527330403477541;-0,24356886618610668;0,08185757904371588;0,10048459333158208;0,5176934638614169;-0,3065093881568052;-0,16551897450997374;-0,23139177306999895;-0,43862650424670807;-0,0031502229603604646;0,3518523480545721;-0,07889339401784984;0,2056322756038322;-0,14599231371237548;-0,2337311425990422;0,20705431614802364;-0,18072176511902513;0,08188709841189266;0,06896325104724875;-0,3850042767140814;-0,5491723943596019;0,4055548089150406;0,5311200874568038;0,18225565942218908;0,17911222160815582;0,6132747479467936;-0,2891561217006097;-0,1692548755978655;-0,12269665963412527;0,03407339660772289;-0,0738918542327731;0,40318531227334975;0,08653260314381349;-0,2690871215521448;0,305648758770089;-0,3228458914030445;0,5108009916276492;0,038735273748181226;0,010627784986123061;-0,42414341340803957;0,02438856656678054;-0,46033636680365303;0,26227456387401066;0,2649008181920905;-0,238626151326721;-0,01329120968491074;0,4110020084971639;0,19609663220175066;-0,49843237108847194;-0,19781973874826522;-0,18124817228763862;-0,4810610375376774;0,3145338014555598;-0,3907679897206129;-0,46023581864300667;-0,32378590499066834;-0,4799501056261601;0,46314404433851997;0,2072873341681488;-0,49516012632325374;0,14268287610012945;0,35991385606345033;0,26716192595641447;0,20910860102738965;0,3334327560519916;0,3913702010958334;-0,16584037787751416;-0,5161344880680181;-0,04614437969895747;0,3700738103728874;-0,04204924390154232;-0,2997249869149465;-0,29128345550185625;0,2512709150915231;-0,15989495416424396;0,28298365190045455;-0,1390716466908528;-0,39287172021811134;0,4403770648685758;-0,33242405690602644;0,4909472819928129;0,07073425656537995;0,1039953004567399;-0,583680873751953;0,007562951624255701;-0,42131179487562415;-0,08004619391971828;-0,15995872884851778;0,399233906947689;0,04942734126721864;-0,4299496746575777;0,08930873753389372;-0,060106636632346874;0,03800713174928271;0,23150992674231974;0,020368838715759816;0,19648441156506052;-0,245905209104254;-0,02493686251160827;0,348019559914527;0,3815247531678143;-0,31572107407845384;-0,23639814429219128;0,3893564931009581;0,26670416019531595;0,3452814864979105;0,38514414249760764;0,07785749489774173;-0,3941657440352357;-0,3066162020096354;0,4245060055914177;-0,43991406412607453;0,5002817408517239;-0,12439432441541029;0,041166311171317846;0,10886235182561424;0,011974260334911722;-0,2483772054549019;-0,4647729095975083;0,07645598269452267;-0,4049066063448995;-0,29571744801502436;0,21511569727372343;-0,33440078395260053;0,19118676487523856;-0,2614355016182796;0,12864192479374384;-0,3147737711696204;-0,3484530794487798;-0,12001377563294341;-0,33417551240251014;-0,04161058671108617;0,35331717207842217;-0,10341395956441306;0,39595492201766525;0,17443697410475426;0,2779676296743345;-0,4871779245663702;-0,26324567185606457;0,3347783286064294;0,012946516229354924;0,4654536703159455;-0,29443182838104576;-0,26308777869425;-0,23676214869663606;-0,31645146212218517;0,02733060302610982;0,034030386385642736;0,3659522171695175;-0,4448393156367289;-0,3878594808170218;0,33383823096073123;0,1141144019347117;0,5038218543906231;-0,28184057890114544;-0,4477431440960583;-0,20763163854369374;0,12333307428775363;-0,195675358831452;-0,3734629626281458;0,14958158876552466;0,7546072509838865;-0,3870072377683692;0,12796370308464125;-0,3009790123153188;0,05390764082725681;0,21536318603147567;0,24695698754775616;-0,4415970652251671;-0,08716030065190537;-0,014085709630720429;-0,20313561623390894;0,11923621295766643;-0,31104709983585055;0,36349434893506655;-0,25016431657358396;-0,42012490206817504;-0,07402246831481907;-0,08215112229769243;-0,48195377432962455;-0,06554881181323513;0,4179905424348811;0,02265137542027348;0,20491924882541296;0,13346005362997648;0,41827579443029667;0,3255941686723694;-0,3230007601812789;-0,043244554506804915;0,07396400695595141;-0,3762045334075323;0,022509448614039633;0,28574981657358517;-0,38663194911797616;-0,063184801892901;-0,06908924905333505;-0,361930898855575;0,15634886937410192;0,5381760647411182;-0,10021160572684842;-0,23587789426529499;0,4040938213118995;-0,12116359538071611;-0,0016715471759408032;-0,29080869919587543;-0,4982800298960776;0,12497790380100303;0,14360849338963436;-0,3985921137978424;-0,19334999633955302;0,20154152536528588;0,49295929464562205;-0,3901753937050412;-0,03970613202440954;0,2680647557106517;0,3635669328329098;0,3757720631201977;-0,1886827045009325;0,25649651916832306;-0,45477867881420697;0,05232442280173269;0,43760187795181327;0,2862807535046628;-0,029134029272120946;-0,3285081759505078;-0,39225694958348095;-0,40104592031467157;-0,09759348396802126;0,006330085160617368;-0,08569693903934328;0,011649505510699522;-0,11973088077746652;-0,43852729071166735;-0,0805446581137241;0,3236196940419797;-0,3071737937182788;-0,3005342327669257;0,41568656930624515;-0,0010888413085500342
-0,3902853611929594;-1,1704046324625292;-0,08495487132675744;0,1459177738976337;-0,2777904497800891;-0,4929493179088646;0,46743395132564075;0,4652657879141134;0,7828863499981151;0,31808526318946756;-0,7854079699393679;0,3415730109134363;0,2171869248763903;-0,09561242117258505;-0,35908558869992446;-0,5658786845873128;0,3032790595479695;-0,45380405173846355;-0,19313523031050295;0,2018035714843359;0,016530803583528375;1,1008400243114593;-0,18642116016343185;0,3754211342124267;0,28437667954254314;0,3608301767735237;-0,14990458028598733;-0,2630139015076089;0,7459970838879223;-0,18777009056733565;0,04870513356733723;-0,35069344965300314;-0,22013384028581426;0,21059276604476318;0,7517627751601355;0,11320663630837619;0,20857854594219855;-0,18518001813190899;0,3043467875275984;0,09601835297485742;-0,7581643311413966;0,026649445064840183;0,9053963593776011;-0,35520620528229924;-0,04487241347695225;-0,8615391919232399;0,860225964242841;0,15195870925705504;-0,44786605636977916;-0,20834949040970152;-0,2734583099905323;-0,7808310385674252;0,2777020874526305;-0,42483251529015187;-0,6693907018613359;-0,30743949279179905;-0,32458927746705785;0,7569523103819906;-0,2042940243573638;-0,10634133183163952;0,0603342919226251;0,20061784216165804;0,37170399959977884;0,2537065702288435;-0,3388766608099321;0,7880235322753197;-0,3230823093137474;-0,24518002079917872;0,27146540954394704;-0,23622977438808795;0,8626014020973358;-0,005293217250598597;0,20496884343384436;-0,49944043709018404;0,058004867871957806;-0,41733386522639704;0,7687108204753454;-0,3108859488196201;-0,3694548778136478;-0,6818329078383996;0,43822594510533514;-0,2188366286532504;0,4546932441471801;-0,06541895808186195;-0,08981290415864678;-0,12912630294668373;-0,523434530275871;0,027941653813421855;-0,2050468409699309;0,21428309026363876;-0,1570384038170785;0,8147625714616241;0,034692087805403456;-0,1403200877880433;-0,18851925520786053;0,04580583949854844;0,35047314068619956;-0,36602355415573945;-0,5763994528187611;0,19600451248759765;-0,5864412701305036;0,482876366501201;0,38289774949286615;0,2541177333650735;-0,08630272122376824;-0,8077431397667354;0,04131693608052558;0,19933707691165692;-0,49944484810963213;-1,118810135960936;0,7764719774997056;0,23848841063764578;0,4005053493809626;0,3206098380535807;-0,017429110845139945;0,7529213492202547;0,21239356252270378;-0,22893427282639095;-0,07363818343370541;0,3463226490109552;0,3636707047113852;-0,4990658166071195;0,7626358223880375;0,04530684721848975;-0,048132392348326045;0,3881846950201863;-0,2712647450890739;-0,150396504856459;-0,158181022507562;-0,21259353208738022;0,4746679807059165;0,477340882521106;-0,007453185633898179;-0,39510792882744805;-0,41446339148907857;0,32208721290713077;-0,5007887675245074;-0,17741119098978617;0,13671002088863862;0,37476578592963095;0,12277005926289965;0,9679020461620215;-1,1690613593027246;0,02168745303055976;-0,7302112412125291;-0,09046997475576367;-0,24904212318241484;-0,4664911341549907;0,13818498666637183;-0,49610744983529037;0,7698561092487476;0,1226057405369589;0,3025677263561018;-0,024306534507352654;-0,6324652742726862;0,5278109193429102;0,1363096517393647;-0,27088917998111406;-0,5305562287266657;0,2299684047522481;-0,8382304056749211;-0,33541694193606264;0,627735219413813;0,5556417510355326;-0,5831135372368446;0,11768695591496087;0,1450057967603531;0,03057434913155059;0,7472144505042795;-0,03671070118915756;-0,17574251631486584;-0,22854887191045656;-0,29338229892885764;0,7838881299813243;0,2873987459748281;0,4063607846408994;0,289582135724942;0,38998895123433164;-0,4845181301040381;0,3831565646653968;-0,4487583649933105;-0,08628394342648979;-0,039935512259861534;0,5149977169495092;-0,15279583718794035;-0,5747269101182999;0,8953072340012469;-0,6823365459110922;0,17313506445238114;-0,2505859684627208;0,2110190150348801;-0,3171148807903272;0,30420250169660573;0,8235085027285796;0,10621154744605506;0,27587752731739157;-0,043825769349691235;0,42611480706663124;-0,03359015619972447;0,14558625694478455;0,5667899397818679;1,207660338066123;-0,36914050676989224;-0,07184523889384097;-0,4307385231808799;-0,39825284693994906;-0,5696534271310258;-0,2377397674530261;-0,4018825169537547;0,3265160564696375;0,730707935799119;-0,4269673896650293;-0,8408441404995555;0,165836702501562;-0,0003350616261159978;0,014989400306414604;-0,025846891269010457;0,3572781274898586;-0,12757392859301742;-0,1263846582627936;-0,02858015208644201;-0,2143090913689212;-0,41149759484652865;0,3057245926250193;1,0899340752587212;-0,45314329937442976;-0,4317479448774652;-0,6666196666573612;0,41933932104209626;0,33347261951646384;-0,8275201196349169;0,20994553553699946;-0,6212693494160436;-0,38378609564742344;0,25570423958410526;-0,07085675049963527;-0,21617987475742645;0,41326251874333175;-0,183827197531848;0,5601580451572823;0,16120155585991544;0,22652110337427364;-0,55225617111111;0,48903250332967474;0,5449509043360371;0,12661912898240982;-1,1435636218038139;0,31091531220742674;1,1984065467648806;0,21157700021517598;-0,25060091473625407;0,02853873329838332;-0,16731119379570608;-0,3343515131637163;0,14831422799088145;-0,4759990834554813;0,5422848091634765;-0,33921114020573995;0,3403322655280829;-0,10190217672749079;0,014364774670442098;0,43565931079320647;0,1391557042988426;0,3064085689150091;-0,07082693421701575;0,10320322924129391;0,023877191489807516;0,07846309274168177;0,08288705901693388;0,4679797067069603;0,37815683661610994;-0,677935983427825;0,9966227854860816;0,0691355593526686;0,3658658292893932;-0,5037212304146287;-0,2631534206458468;-0,7213262991559913;-0,24832881779562352;0,012020611088010547;0,431513702501096;-0,3544965306366122;-0,5080033629315033;-0,46205677533307504;-0,03172412486840279;-0,45564454374248353;-0,029521519828889165;0,2547964858431381;1,0368715545960128;-0,617072132004886;-0,20237754081781462;-0,3827969813535171;0,04839341978668144;-0,11280726222685766;-0,7501082345387754;-0,733203000409281;-0,6668060924556148;0,7569386181550427;-0,4219337106083875;0,7688418504983772;0,23364535394797523;0,6367425124891958;-0,24884265126154156;0,8823394700596383;0,2539073945269403;0,49162930661815274;-0,38704334275726604;-0,31097187359575257;0,662979087872852;-0,25073135156710424;0,23710415415537714;0,11751312147493632;-0,04521454141161983;-0,5233103087965951;-0,29279379507791764;0,1567136038563328;-0,4122617807080217;-0,27327981836919873;0,17727341783664724;0,032626127697600364
-0,6917859376716341;0,027909714192658263;0,3905779127102034;-0,2637079304454525;0,18529519868788638;0,15386362557895664;0,6292031214930832;0,24579771748132914;0,44256095722135386;0,34245914420826395;0,45067879804941474;0,2332151949650207;0,37098119293023907;-0,07726470560904315;0,2977623570093976;0,3167237793107496;-0,06579650615473186;0,3671684524541807;-0,5597863805684606;-0,2076999352458033;0,7728604841159674;0,022215254612053138;0,0583436130556571;-0,3301221422805497;-0,28263309799946945;0,18170481417052547;-0,15918504892901597;0,3164984446288407;0,16466348076750562;-0,46134444929061397;0,17776466948645003;0,15306816981074622
-0,1901766381386043;0,290011250239918;-0,46101033668453484;-0,041627689807914564;0,7223120037843318;0,574450025644312;-0,023858859699798673;0,953446463914799;-0,6516285859522241;-0,256681286500595
